genomestart 1
trait 1 0.1 0 0 0 0 0 0 0
trait 2 0.2 0 0 0 0 0 0 0
trait 3 0.3 0 0 0 0 0 0 0
node 1 0 1 1
node 2 0 1 1
node 3 0 1 1
node 4 0 1 1
node 5 0 1 1
node 6 0 1 1
node 7 0 1 1
node 8 0 1 1
node 9 0 1 1
node 10 0 1 1
node 11 0 1 1
node 12 0 1 1
node 13 0 1 1
node 14 0 1 1
node 15 0 1 1
node 16 0 1 1
node 17 0 1 1
node 18 0 1 1
node 19 0 1 1
node 20 0 1 1
node 21 0 1 1
node 22 0 1 1
node 23 0 1 1
node 24 0 1 1
node 25 0 1 1
node 26 0 1 1
node 27 0 1 1
node 28 0 1 1
node 29 0 1 1
node 30 0 1 1
node 31 0 1 1
node 32 0 1 1
node 33 0 1 1
node 34 0 1 1
node 35 0 1 1
node 36 0 1 1
node 37 0 1 1
node 38 0 1 1
node 39 0 1 1
node 40 0 1 1
node 41 0 1 1
node 42 0 1 1
node 43 0 1 1
node 44 0 1 1
node 45 0 1 1
node 46 0 1 1
node 47 0 1 1
node 48 0 1 1
node 49 0 1 1
node 50 0 1 3
node 51 0 0 2
node 52 0 0 2
node 53 0 0 2
node 54 0 0 2
node 55 0 0 2
node 56 0 0 2
node 57 0 0 2
node 58 0 0 2
node 59 0 0 2
node 60 0 0 2
gene 1 1 51 0.0 0 1 0 1
gene 1 19 51 0.0 0 19 0 1
gene 2 50 51 0.0 0 50 0 1
gene 1 20 52 0.0 0 70 0 1
gene 3 37 52 0.0 0 87 0 1
gene 1 50 52 0.0 0 100 0 1
gene 3 11 53 0.0 0 111 0 1
gene 2 37 53 0.0 0 137 0 1
gene 2 40 53 0.0 0 140 0 1
gene 2 47 54 0.0 0 197 0 1
gene 1 17 55 0.0 0 217 0 1
gene 1 44 55 0.0 0 244 0 1
gene 2 48 55 0.0 0 248 0 1
gene 1 50 55 0.0 0 250 0 1
gene 3 2 56 0.0 0 252 0 1
gene 2 40 56 0.0 0 290 0 1
gene 1 1 57 0.0 0 301 0 1
gene 3 3 57 0.0 0 303 0 1
gene 2 26 57 0.0 0 326 0 1
gene 2 44 57 0.0 0 344 0 1
gene 1 49 57 0.0 0 349 0 1
gene 3 1 58 0.0 0 351 0 1
gene 1 23 58 0.0 0 373 0 1
gene 2 30 58 0.0 0 380 0 1
gene 1 44 58 0.0 0 394 0 1
gene 1 47 58 0.0 0 397 0 1
gene 2 7 59 0.0 0 407 0 1
gene 1 39 59 0.0 0 439 0 1
gene 3 41 59 0.0 0 441 0 1
gene 3 18 60 0.0 0 468 0 1
gene 3 21 60 0.0 0 471 0 1
gene 3 30 60 0.0 0 480 0 1
gene 2 35 60 0.0 0 485 0 1
genomeend 1








