
/* Species #1 : (Size 28) (AF 0) (Age 1)  */


/* Organism #79 Fitness: 101 Error: 0 */
genomestart 79
trait 1 0.569832 0 0 0 0 0 0 0 
trait 2 0.2 0 0 0 0 0 0 0 
trait 3 0.3 0 0 0 0 0 0 0 
node 1 2 1 1
node 2 3 1 1
node 3 1 1 1
node 4 3 1 1
node 5 1 1 1
node 6 2 1 1
node 7 3 1 1
node 8 1 1 1
node 9 3 1 1
node 10 2 1 1
node 11 3 1 1
node 12 1 1 1
node 13 3 1 1
node 14 2 1 1
node 15 3 1 1
node 16 3 1 1
node 17 3 1 1
node 18 1 1 1
node 19 3 1 1
node 20 3 1 1
node 21 2 1 1
node 22 2 1 1
node 23 2 1 1
node 24 2 1 1
node 25 1 1 1
node 26 2 1 1
node 27 2 1 1
node 28 1 1 1
node 29 3 1 1
node 30 1 1 1
node 31 1 1 1
node 32 2 1 1
node 33 1 1 1
node 34 2 1 1
node 35 1 1 1
node 36 2 1 1
node 37 1 1 1
node 38 3 1 1
node 39 1 1 1
node 40 1 1 1
node 41 3 1 1
node 42 2 1 1
node 43 1 1 1
node 44 1 1 1
node 45 1 1 1
node 46 2 1 1
node 47 1 1 1
node 48 2 1 1
node 49 2 1 1
node 50 1 1 3
node 51 2 0 2
node 52 3 0 2
node 53 3 0 2
node 54 2 0 2
node 55 3 0 2
node 56 2 0 2
node 57 2 0 2
node 58 3 0 2
node 59 3 0 2
node 60 2 0 2
gene 3 1 51 0.386578 0 1 0.386578 1
gene 2 2 51 0.769036 0 2 0.769036 1
gene 3 3 51 0.0131382 0 3 0.0131382 1
gene 1 4 51 -0.765511 0 4 -0.765511 1
gene 2 5 51 0.86111 0 5 0.86111 1
gene 3 6 51 0.805612 0 6 0.805612 1
gene 1 7 51 -0.889416 0 7 -0.889416 1
gene 3 8 51 0.297281 0 8 0.297281 1
gene 3 9 51 -0.824808 0 9 -0.824808 1
gene 1 10 51 1.534 0 10 1.534 1
gene 2 11 51 -0.693075 0 11 -0.693075 1
gene 3 12 51 -0.421842 0 12 -0.421842 1
gene 2 13 51 -0.0376141 0 13 -0.0376141 1
gene 2 14 51 -0.00146489 0 14 -0.00146489 1
gene 1 15 51 0.891827 0 15 0.891827 1
gene 3 16 51 0.397443 0 16 0.397443 1
gene 2 17 51 -0.0446333 0 17 -0.0446333 1
gene 3 18 51 0.0440229 0 18 0.0440229 1
gene 2 19 51 -2.27218 0 19 -2.27218 1
gene 1 20 51 -0.165136 0 20 -0.165136 1
gene 3 21 51 -0.917646 0 21 -0.917646 1
gene 2 22 51 0.83491 0 22 0.83491 1
gene 3 23 51 0.540727 0 23 0.540727 1
gene 3 24 51 0.0253151 0 24 0.0253151 1
gene 3 25 51 0.872707 0 25 0.872707 1
gene 2 26 51 1.10752 0 26 1.10752 1
gene 3 27 51 -0.127338 0 27 -0.127338 1
gene 3 28 51 -1.89415 0 28 -1.89415 1
gene 2 29 51 -1.76244 0 29 -1.76244 1
gene 1 30 51 2.46364 0 30 2.46364 1
gene 2 31 51 -0.138401 0 31 -0.138401 1
gene 2 32 51 -1.74442 0 32 -1.74442 1
gene 3 33 51 -0.274499 0 33 -0.274499 1
gene 1 34 51 2.02559 0 34 2.02559 1
gene 2 35 51 -0.485046 0 35 -0.485046 1
gene 2 36 51 0.0804773 0 36 0.0804773 1
gene 2 37 51 0.20542 0 37 0.20542 1
gene 1 38 51 -1.94888 0 38 -1.94888 1
gene 3 39 51 2.2985 0 39 2.2985 1
gene 3 40 51 -0.273934 0 40 -0.273934 1
gene 1 41 51 0.844295 0 41 0.844295 1
gene 1 42 51 1.53781 0 42 1.53781 1
gene 1 43 51 -2.22308 0 43 -2.22308 1
gene 1 44 51 2.66779 0 44 2.66779 1
gene 3 45 51 -0.552934 0 45 -0.552934 1
gene 3 46 51 -1.01144 0 46 -1.01144 1
gene 2 47 51 -0.225257 0 47 -0.225257 1
gene 3 48 51 -1.98729 0 48 -1.98729 1
gene 1 49 51 -0.139241 0 49 -0.139241 1
gene 2 50 51 -1.87117 0 50 -1.87117 1
gene 3 1 52 0.805322 0 51 0.805322 1
gene 2 2 52 1.80763 0 52 1.80763 1
gene 2 3 52 0.427717 0 53 0.427717 1
gene 3 4 52 0.334162 0 54 0.334162 1
gene 2 5 52 -0.339518 0 55 -0.339518 1
gene 1 6 52 -1.11376 0 56 -1.11376 1
gene 3 7 52 0.662313 0 57 0.662313 1
gene 3 8 52 -1.11708 0 58 -1.11708 1
gene 1 9 52 0.341853 0 59 0.341853 1
gene 2 10 52 2.27923 0 60 2.27923 1
gene 2 11 52 1.88417 0 61 1.88417 1
gene 3 12 52 -1.15787 0 62 -1.15787 1
gene 3 13 52 -1.5607 0 63 -1.5607 1
gene 2 14 52 1.31532 0 64 1.31532 1
gene 2 15 52 -2.32586 0 65 -2.32586 1
gene 1 16 52 0.71543 0 66 0.71543 1
gene 1 17 52 0.36642 0 67 0.36642 1
gene 3 18 52 1.56197 0 68 1.56197 1
gene 2 19 52 1.45694 0 69 1.45694 1
gene 1 20 52 -1.14223 0 70 -1.14223 1
gene 3 21 52 -1.91189 0 71 -1.91189 1
gene 1 22 52 -0.333079 0 72 -0.333079 1
gene 1 23 52 2.08699 0 73 2.08699 1
gene 2 24 52 -0.0901059 0 74 -0.0901059 1
gene 1 25 52 -0.0531938 0 75 -0.0531938 1
gene 1 26 52 -1.58579 0 76 -1.58579 1
gene 2 27 52 -0.309168 0 77 -0.309168 1
gene 3 28 52 0.76397 0 78 0.76397 1
gene 3 29 52 -2.12563 0 79 -2.12563 1
gene 1 30 52 -2.35145 0 80 -2.35145 1
gene 1 31 52 0.629292 0 81 0.629292 1
gene 3 32 52 0.0927152 0 82 0.0927152 1
gene 1 33 52 1.73498 0 83 1.73498 1
gene 2 34 52 2.17383 0 84 2.17383 1
gene 3 35 52 -2.08411 0 85 -2.08411 1
gene 3 36 52 2.42863 0 86 2.42863 1
gene 2 37 52 -1.38386 0 87 -1.38386 1
gene 2 38 52 1.48231 0 88 1.48231 1
gene 1 39 52 -1.77308 0 89 -1.77308 1
gene 1 40 52 1.50984 0 90 1.50984 1
gene 2 41 52 1.06334 0 91 1.06334 1
gene 2 42 52 -0.500244 0 92 -0.500244 1
gene 1 43 52 -0.112857 0 93 -0.112857 1
gene 2 44 52 0.38287 0 94 0.38287 1
gene 2 45 52 0.243416 0 95 0.243416 1
gene 3 46 52 -0.265984 0 96 -0.265984 1
gene 3 47 52 2.03632 0 97 2.03632 1
gene 3 48 52 1.20273 0 98 1.20273 1
gene 1 49 52 -0.205649 0 99 -0.205649 1
gene 3 50 52 -2.48708 0 100 -2.48708 1
gene 3 1 53 -1.19579 0 101 -1.19579 1
gene 1 2 53 0.396283 0 102 0.396283 1
gene 3 3 53 -1.64684 0 103 -1.64684 1
gene 2 4 53 -1.50491 0 104 -1.50491 1
gene 2 5 53 -0.905347 0 105 -0.905347 1
gene 1 6 53 1.79128 0 106 1.79128 1
gene 1 7 53 2.1278 0 107 2.1278 1
gene 3 8 53 -1.60813 0 108 -1.60813 1
gene 1 9 53 -0.572527 0 109 -0.572527 1
gene 3 10 53 -1.98904 0 110 -1.98904 1
gene 2 11 53 1.4396 0 111 1.4396 1
gene 2 12 53 0.290292 0 112 0.290292 1
gene 2 13 53 1.58831 0 113 1.58831 1
gene 2 14 53 0.314554 0 114 0.314554 1
gene 2 15 53 -1.23814 0 115 -1.23814 1
gene 2 16 53 0.124012 0 116 0.124012 1
gene 3 17 53 0.992386 0 117 0.992386 1
gene 2 18 53 1.1605 0 118 1.1605 1
gene 2 19 53 -2.64235 0 119 -2.64235 1
gene 3 20 53 -1.58727 0 120 -1.58727 1
gene 3 21 53 -0.30813 0 121 -0.30813 1
gene 1 22 53 1.24717 0 122 1.24717 1
gene 2 23 53 0.429228 0 123 0.429228 1
gene 2 24 53 0.313105 0 124 0.313105 1
gene 1 25 53 -0.285806 0 125 -0.285806 1
gene 3 26 53 -1.0421 0 126 -1.0421 1
gene 3 27 53 1.80975 0 127 1.80975 1
gene 1 28 53 0.861538 0 128 0.861538 1
gene 2 29 53 -1.51244 0 129 -1.51244 1
gene 1 30 53 -0.854656 0 130 -0.854656 1
gene 1 31 53 0.260399 0 131 0.260399 1
gene 3 32 53 -0.73365 0 132 -0.73365 1
gene 1 33 53 -1.71725 0 133 -1.71725 1
gene 3 34 53 0.557604 0 134 0.557604 1
gene 3 35 53 -1.37205 0 135 -1.37205 1
gene 3 36 53 1.39724 0 136 1.39724 1
gene 2 37 53 0.74012 0 137 0.74012 1
gene 1 38 53 -0.4597 0 138 -0.4597 1
gene 3 39 53 0.301752 0 139 0.301752 1
gene 1 40 53 2.30705 0 140 2.30705 1
gene 2 41 53 -2.29249 0 141 -2.29249 1
gene 3 42 53 0.332041 0 142 0.332041 1
gene 3 43 53 -1.9595 0 143 -1.9595 1
gene 3 44 53 -0.12772 0 144 -0.12772 1
gene 3 45 53 1.38356 0 145 1.38356 1
gene 1 46 53 2.08736 0 146 2.08736 1
gene 3 47 53 -2.3787 0 147 -2.3787 1
gene 3 48 53 -1.47916 0 148 -1.47916 1
gene 3 49 53 0.479171 0 149 0.479171 1
gene 2 50 53 0.0398572 0 150 0.0398572 1
gene 2 1 54 0.400235 0 151 0.400235 1
gene 3 2 54 -0.750679 0 152 -0.750679 1
gene 3 3 54 -1.80775 0 153 -1.80775 1
gene 1 4 54 0.931242 0 154 0.931242 1
gene 3 5 54 -0.897534 0 155 -0.897534 1
gene 1 6 54 0.210288 0 156 0.210288 1
gene 3 7 54 1.54592 0 157 1.54592 1
gene 1 8 54 0.755181 0 158 0.755181 1
gene 3 9 54 1.49289 0 159 1.49289 1
gene 3 10 54 2.19352 0 160 2.19352 1
gene 1 11 54 0.391781 0 161 0.391781 1
gene 3 12 54 -0.569384 0 162 -0.569384 1
gene 3 13 54 0.581179 0 163 0.581179 1
gene 1 14 54 2.15949 0 164 2.15949 1
gene 2 15 54 -0.298761 0 165 -0.298761 1
gene 1 16 54 -0.35464 0 166 -0.35464 1
gene 2 17 54 -0.344676 0 167 -0.344676 1
gene 3 18 54 1.82543 0 168 1.82543 1
gene 2 19 54 1.58979 0 169 1.58979 1
gene 2 20 54 -0.238548 0 170 -0.238548 1
gene 2 21 54 0.663717 0 171 0.663717 1
gene 3 22 54 -1.42012 0 172 -1.42012 1
gene 3 23 54 1.59529 0 173 1.59529 1
gene 2 24 54 2.15262 0 174 2.15262 1
gene 3 25 54 0.417112 0 175 0.417112 1
gene 1 26 54 -1.31594 0 176 -1.31594 1
gene 2 27 54 -2.18993 0 177 -2.18993 1
gene 2 28 54 1.0226 0 178 1.0226 1
gene 3 29 54 1.13134 0 179 1.13134 1
gene 2 30 54 1.28893 0 180 1.28893 1
gene 2 31 54 0.892087 0 181 0.892087 1
gene 3 32 54 1.58722 0 182 1.58722 1
gene 1 33 54 0.466994 0 183 0.466994 1
gene 2 34 54 -1.78285 0 184 -1.78285 1
gene 3 35 54 2.55329 0 185 2.55329 1
gene 1 36 54 -0.696295 0 186 -0.696295 1
gene 1 37 54 -0.644047 0 187 -0.644047 1
gene 1 38 54 -0.0817286 0 188 -0.0817286 1
gene 1 39 54 -0.20365 0 189 -0.20365 1
gene 2 40 54 -1.00926 0 190 -1.00926 1
gene 3 41 54 3.02104 0 191 3.02104 1
gene 2 42 54 0.156331 0 192 0.156331 1
gene 3 43 54 -0.393262 0 193 -0.393262 1
gene 3 44 54 1.48924 0 194 1.48924 1
gene 3 45 54 -1.38821 0 195 -1.38821 1
gene 2 46 54 1.64444 0 196 1.64444 1
gene 3 47 54 -2.59561 0 197 -2.59561 1
gene 2 48 54 1.84559 0 198 1.84559 1
gene 1 49 54 1.35765 0 199 1.35765 1
gene 2 50 54 -1.90071 0 200 -1.90071 1
gene 2 1 55 -0.204474 0 201 -0.204474 1
gene 2 2 55 -1.42633 0 202 -1.42633 1
gene 3 3 55 0.824 0 203 0.824 1
gene 3 4 55 -0.0421613 0 204 -0.0421613 1
gene 1 5 55 0.824015 0 205 0.824015 1
gene 2 6 55 0.430586 0 206 0.430586 1
gene 1 7 55 -0.206854 0 207 -0.206854 1
gene 3 8 55 -1.87559 0 208 -1.87559 1
gene 3 9 55 -1.05545 0 209 -1.05545 1
gene 1 10 55 -1.68876 0 210 -1.68876 1
gene 3 11 55 -0.704672 0 211 -0.704672 1
gene 3 12 55 2.05911 0 212 2.05911 1
gene 3 13 55 -0.497406 0 213 -0.497406 1
gene 3 14 55 0.625202 0 214 0.625202 1
gene 1 15 55 0.993606 0 215 0.993606 1
gene 2 16 55 0.624805 0 216 0.624805 1
gene 1 17 55 0.151326 0 217 0.151326 1
gene 3 18 55 -1.51103 0 218 -1.51103 1
gene 2 19 55 1.4816 0 219 1.4816 1
gene 3 20 55 0.812845 0 220 0.812845 1
gene 1 21 55 -1.56957 0 221 -1.56957 1
gene 3 22 55 0.702612 0 222 0.702612 1
gene 1 23 55 -0.438383 0 223 -0.438383 1
gene 1 24 55 0.5009 0 224 0.5009 1
gene 1 25 55 2.07212 0 225 2.07212 1
gene 1 26 55 2.28774 0 226 2.28774 1
gene 3 27 55 -2.01857 0 227 -2.01857 1
gene 3 28 55 -1.51047 0 228 -1.51047 1
gene 1 29 55 1.70603 0 229 1.70603 1
gene 1 30 55 0.374813 0 230 0.374813 1
gene 1 31 55 -1.12792 0 231 -1.12792 1
gene 2 32 55 -2.16074 0 232 -2.16074 1
gene 2 33 55 -1.94899 0 233 -1.94899 1
gene 2 34 55 -0.313074 0 234 -0.313074 1
gene 1 35 55 -0.477783 0 235 -0.477783 1
gene 1 36 55 1.67689 0 236 1.67689 1
gene 1 37 55 -1.29362 0 237 -1.29362 1
gene 1 38 55 -0.926496 0 238 -0.926496 1
gene 3 39 55 -1.58689 0 239 -1.58689 1
gene 3 40 55 -1.65137 0 240 -1.65137 1
gene 2 41 55 -0.456099 0 241 -0.456099 1
gene 1 42 55 -2.22144 0 242 -2.22144 1
gene 3 43 55 0.343989 0 243 0.343989 1
gene 1 44 55 -1.52097 0 244 -1.52097 1
gene 3 45 55 -2.2288 0 245 -2.2288 1
gene 2 46 55 0.364528 0 246 0.364528 1
gene 3 47 55 -2.31617 0 247 -2.31617 1
gene 1 48 55 -0.851329 0 248 -0.851329 1
gene 2 49 55 0.626179 0 249 0.626179 1
gene 2 50 55 -0.901471 0 250 -0.901471 1
gene 3 1 56 0.101657 0 251 0.101657 1
gene 1 2 56 2.08501 0 252 2.08501 1
gene 1 3 56 -0.954619 0 253 -0.954619 1
gene 3 4 56 0.434172 0 254 0.434172 1
gene 3 5 56 -1.76594 0 255 -1.76594 1
gene 3 6 56 0.106967 0 256 0.106967 1
gene 2 7 56 1.18928 0 257 1.18928 1
gene 2 8 56 0.43231 0 258 0.43231 1
gene 1 9 56 1.87288 0 259 1.87288 1
gene 2 10 56 -1.26138 0 260 -1.26138 1
gene 2 11 56 1.5038 0 261 1.5038 1
gene 3 12 56 1.14875 0 262 1.14875 1
gene 1 13 56 -0.680776 0 263 -0.680776 1
gene 1 14 56 0.55916 0 264 0.55916 1
gene 1 15 56 0.830561 0 265 0.830561 1
gene 1 16 56 0.0945463 0 266 0.0945463 1
gene 1 17 56 -0.77662 0 267 -0.77662 1
gene 1 18 56 0.234306 0 268 0.234306 1
gene 1 19 56 0.309214 0 269 0.309214 1
gene 3 20 56 -1.87048 0 270 -1.87048 1
gene 3 21 56 1.51651 0 271 1.51651 1
gene 3 22 56 0.159169 0 272 0.159169 1
gene 3 23 56 1.84809 0 273 1.84809 1
gene 3 24 56 -0.0702536 0 274 -0.0702536 1
gene 1 25 56 0.134373 0 275 0.134373 1
gene 1 26 56 0.961318 0 276 0.961318 1
gene 3 27 56 0.32342 0 277 0.32342 1
gene 2 28 56 -1.97235 0 278 -1.97235 1
gene 3 29 56 1.9494 0 279 1.9494 1
gene 2 30 56 1.98677 0 280 1.98677 1
gene 2 31 56 -0.884793 0 281 -0.884793 1
gene 2 32 56 -0.171712 0 282 -0.171712 1
gene 2 33 56 0.290719 0 283 0.290719 1
gene 2 34 56 -1.17598 0 284 -1.17598 1
gene 3 35 56 0.549837 0 285 0.549837 1
gene 1 36 56 -1.20098 0 286 -1.20098 1
gene 1 37 56 -0.511612 0 287 -0.511612 1
gene 1 38 56 -2.56644 0 288 -2.56644 1
gene 2 39 56 2.11246 0 289 2.11246 1
gene 2 40 56 1.10088 0 290 1.10088 1
gene 3 41 56 -0.201254 0 291 -0.201254 1
gene 2 42 56 -0.82284 0 292 -0.82284 1
gene 3 43 56 1.73386 0 293 1.73386 1
gene 1 44 56 -0.174139 0 294 -0.174139 1
gene 3 45 56 0.429701 0 295 0.429701 1
gene 3 46 56 2.51601 0 296 2.51601 1
gene 3 47 56 0.904279 0 297 0.904279 1
gene 1 48 56 -0.830164 0 298 -0.830164 1
gene 3 49 56 -2.491 0 299 -2.491 1
gene 2 50 56 0.604236 0 300 0.604236 1
gene 2 1 57 1.07253 0 301 1.07253 1
gene 2 2 57 -0.21157 0 302 -0.21157 1
gene 1 3 57 0.989639 0 303 0.989639 1
gene 2 4 57 -0.897351 0 304 -0.897351 1
gene 2 5 57 0.527207 0 305 0.527207 1
gene 1 6 57 0.977371 0 306 0.977371 1
gene 2 7 57 -0.637547 0 307 -0.637547 1
gene 3 8 57 -2.25417 0 308 -2.25417 1
gene 1 9 57 3.21017 0 309 3.21017 1
gene 3 10 57 2.69742 0 310 2.69742 1
gene 3 11 57 -2.22831 0 311 -2.22831 1
gene 3 12 57 -1.67656 0 312 -1.67656 1
gene 3 13 57 -1.65983 0 313 -1.65983 1
gene 1 14 57 0.703696 0 314 0.703696 1
gene 3 15 57 2.0305 0 315 2.0305 1
gene 3 16 57 -1.985 0 316 -1.985 1
gene 1 17 57 1.55371 0 317 1.55371 1
gene 1 18 57 -0.0202795 0 318 -0.0202795 1
gene 3 19 57 -1.57125 0 319 -1.57125 1
gene 2 20 57 2.16765 0 320 2.16765 1
gene 2 21 57 -1.96106 0 321 -1.96106 1
gene 1 22 57 -1.58827 0 322 -1.58827 1
gene 2 23 57 -0.183721 0 323 -0.183721 1
gene 3 24 57 -0.124165 0 324 -0.124165 1
gene 2 25 57 -1.06621 0 325 -1.06621 1
gene 2 26 57 -0.575549 0 326 -0.575549 1
gene 2 27 57 0.516694 0 327 0.516694 1
gene 1 28 57 2.01758 0 328 2.01758 1
gene 1 29 57 -2.38595 0 329 -2.38595 1
gene 2 30 57 -1.10317 0 330 -1.10317 1
gene 1 31 57 -0.428312 0 331 -0.428312 1
gene 1 32 57 2.44476 0 332 2.44476 1
gene 1 33 57 -0.814859 0 333 -0.814859 1
gene 2 34 57 0.682241 0 334 0.682241 1
gene 3 35 57 2.88099 0 335 2.88099 1
gene 2 36 57 1.94273 0 336 1.94273 1
gene 3 37 57 0.724738 0 337 0.724738 1
gene 1 38 57 -1.4151 0 338 -1.4151 1
gene 1 39 57 -0.597232 0 339 -0.597232 1
gene 1 40 57 -0.868633 0 340 -0.868633 1
gene 1 41 57 -1.16746 0 341 -1.16746 1
gene 3 42 57 -1.882 0 342 -1.882 1
gene 2 43 57 -1.41713 0 343 -1.41713 1
gene 3 44 57 -1.98256 0 344 -1.98256 1
gene 3 45 57 1.2859 0 345 1.2859 1
gene 1 46 57 2.33126 0 346 2.33126 1
gene 3 47 57 1.82684 0 347 1.82684 1
gene 3 48 57 0.54651 0 348 0.54651 1
gene 2 49 57 -1.1644 0 349 -1.1644 1
gene 3 50 57 -2.36734 0 350 -2.36734 1
gene 2 1 58 1.60344 0 351 1.60344 1
gene 3 2 58 2.27859 0 352 2.27859 1
gene 2 3 58 -1.94801 0 353 -1.94801 1
gene 2 4 58 -1.49815 0 354 -1.49815 1
gene 2 5 58 1.55837 0 355 1.55837 1
gene 3 6 58 1.00713 0 356 1.00713 1
gene 3 7 58 -0.735435 0 357 -0.735435 1
gene 1 8 58 1.58367 0 358 1.58367 1
gene 3 9 58 -1.5121 0 359 -1.5121 1
gene 1 10 58 1.98225 0 360 1.98225 1
gene 1 11 58 -0.74839 0 361 -0.74839 1
gene 3 12 58 0.579394 0 362 0.579394 1
gene 1 13 58 -1.10904 0 363 -1.10904 1
gene 3 14 58 -0.12421 0 364 -0.12421 1
gene 2 15 58 0.962035 0 365 0.962035 1
gene 1 16 58 -1.71575 0 366 -1.71575 1
gene 1 17 58 0.193686 0 367 0.193686 1
gene 2 18 58 0.995117 0 368 0.995117 1
gene 2 19 58 0.146641 0 369 0.146641 1
gene 3 20 58 -2.09444 0 370 -2.09444 1
gene 1 21 58 1.24686 0 371 1.24686 1
gene 2 22 58 2.24383 0 372 2.24383 1
gene 1 23 58 -2.46094 0 373 -2.46094 1
gene 3 24 58 -2.36659 0 374 -2.36659 1
gene 2 25 58 1.84576 0 375 1.84576 1
gene 2 26 58 1.05892 0 376 1.05892 1
gene 2 27 58 -2.55435 0 377 -2.55435 1
gene 2 28 58 1.17205 0 378 1.17205 1
gene 1 29 58 -1.59377 0 379 -1.59377 1
gene 2 30 58 1.1731 0 380 1.1731 1
gene 2 31 58 1.4926 0 381 1.4926 1
gene 1 32 58 -2.72355 0 382 -2.72355 1
gene 2 33 58 -1.33938 0 383 -1.33938 1
gene 3 34 58 -1.79582 0 384 -1.79582 1
gene 2 35 58 -1.53613 0 385 -1.53613 1
gene 2 36 58 -0.193396 0 386 -0.193396 1
gene 1 37 58 1.45111 0 387 1.45111 1
gene 3 38 58 0.799951 0 388 0.799951 1
gene 3 39 58 -0.189169 0 389 -0.189169 1
gene 3 40 58 0.201041 0 390 0.201041 1
gene 2 41 58 -2.14635 0 391 -2.14635 1
gene 2 42 58 -1.17592 0 392 -1.17592 1
gene 1 43 58 0.0653096 0 393 0.0653096 1
gene 2 44 58 0.626698 0 394 0.626698 1
gene 2 45 58 0.342967 0 395 0.342967 1
gene 1 46 58 0.60387 0 396 0.60387 1
gene 2 47 58 0.708029 0 397 0.708029 1
gene 1 48 58 1.95309 0 398 1.95309 1
gene 1 49 58 -0.257027 0 399 -0.257027 1
gene 3 50 58 -0.988235 0 400 -0.988235 1
gene 2 1 59 -1.46358 0 401 -1.46358 1
gene 2 2 59 -0.158925 0 402 -0.158925 1
gene 2 3 59 -2.27825 0 403 -2.27825 1
gene 2 4 59 -1.64957 0 404 -1.64957 1
gene 1 5 59 -2.3621 0 405 -2.3621 1
gene 3 6 59 -0.225974 0 406 -0.225974 1
gene 3 7 59 -0.164632 0 407 -0.164632 1
gene 1 8 59 0.984771 0 408 0.984771 1
gene 3 9 59 -0.0146489 0 409 -0.0146489 1
gene 2 10 59 -1.08908 0 410 -1.08908 1
gene 3 11 59 -2.38197 0 411 -2.38197 1
gene 2 12 59 1.31353 0 412 1.31353 1
gene 1 13 59 0.476928 0 413 0.476928 1
gene 2 14 59 -1.47868 0 414 -1.47868 1
gene 2 15 59 -1.09314 0 415 -1.09314 1
gene 1 16 59 2.20168 0 416 2.20168 1
gene 3 17 59 -1.55196 0 417 -1.55196 1
gene 3 18 59 0.497452 0 418 0.497452 1
gene 3 19 59 -1.73054 0 419 -1.73054 1
gene 2 20 59 0.284509 0 420 0.284509 1
gene 1 21 59 -2.52609 0 421 -2.52609 1
gene 2 22 59 -0.55681 0 422 -0.55681 1
gene 3 23 59 1.68729 0 423 1.68729 1
gene 2 24 59 0.0905026 0 424 0.0905026 1
gene 2 25 59 0.975829 0 425 0.975829 1
gene 1 26 59 1.42866 0 426 1.42866 1
gene 3 27 59 -0.874096 0 427 -0.874096 1
gene 1 28 59 -1.53279 0 428 -1.53279 1
gene 1 29 59 -0.167013 0 429 -0.167013 1
gene 1 30 59 -0.533586 0 430 -0.533586 1
gene 1 31 59 -1.7946 0 431 -1.7946 1
gene 1 32 59 0.215232 0 432 0.215232 1
gene 1 33 59 -0.115696 0 433 -0.115696 1
gene 1 34 59 0.856288 0 434 0.856288 1
gene 3 35 59 2.44621 0 435 2.44621 1
gene 3 36 59 1.97714 0 436 1.97714 1
gene 2 37 59 1.6483 0 437 1.6483 1
gene 1 38 59 0.87756 0 438 0.87756 1
gene 3 39 59 1.26589 0 439 1.26589 1
gene 1 40 59 -0.304651 0 440 -0.304651 1
gene 1 41 59 1.37892 0 441 1.37892 1
gene 2 42 59 -0.325861 0 442 -0.325861 1
gene 2 43 59 -1.94014 0 443 -1.94014 1
gene 3 44 59 0.434812 0 444 0.434812 1
gene 1 45 59 1.53128 0 445 1.53128 1
gene 1 46 59 -1.67368 0 446 -1.67368 1
gene 2 47 59 -1.1809 0 447 -1.1809 1
gene 3 48 59 -2.61393 0 448 -2.61393 1
gene 3 49 59 -1.47812 0 449 -1.47812 1
gene 3 50 59 -0.187384 0 450 -0.187384 1
gene 2 11 60 2.03648 0 453 2.03648 1
genomeend 79

/* Organism #61 Fitness: 34 Error: 0 */
genomestart 61
trait 1 0.1 0 0 0 0 0 0 0 
trait 2 0.2 0 0 0 0 0 0 0 
trait 3 0.3 0 0 0 0 0 0 0 
node 1 2 1 1
node 2 3 1 1
node 3 1 1 1
node 4 3 1 1
node 5 1 1 1
node 6 2 1 1
node 7 3 1 1
node 8 1 1 1
node 9 3 1 1
node 10 2 1 1
node 11 3 1 1
node 12 1 1 1
node 13 3 1 1
node 14 2 1 1
node 15 3 1 1
node 16 3 1 1
node 17 3 1 1
node 18 1 1 1
node 19 3 1 1
node 20 3 1 1
node 21 2 1 1
node 22 2 1 1
node 23 2 1 1
node 24 2 1 1
node 25 1 1 1
node 26 2 1 1
node 27 2 1 1
node 28 1 1 1
node 29 3 1 1
node 30 1 1 1
node 31 1 1 1
node 32 2 1 1
node 33 1 1 1
node 34 2 1 1
node 35 1 1 1
node 36 2 1 1
node 37 1 1 1
node 38 3 1 1
node 39 1 1 1
node 40 1 1 1
node 41 3 1 1
node 42 2 1 1
node 43 1 1 1
node 44 1 1 1
node 45 1 1 1
node 46 2 1 1
node 47 1 1 1
node 48 2 1 1
node 49 2 1 1
node 50 1 1 3
node 51 2 0 2
node 52 3 0 2
node 53 3 0 2
node 54 2 0 2
node 55 3 0 2
node 56 2 0 2
node 57 2 0 2
node 58 3 0 2
node 59 3 0 2
node 60 2 0 2
gene 3 1 51 0.803003 0 1 0.803003 1
gene 2 2 51 0.140202 0 2 0.140202 1
gene 3 3 51 0.0131382 0 3 0.0131382 1
gene 1 4 51 -0.20069 0 4 -0.20069 1
gene 2 5 51 0.118595 0 5 0.118595 1
gene 3 6 51 -0.504929 0 6 -0.504929 1
gene 1 7 51 -0.94084 0 7 -0.94084 1
gene 3 8 51 0.297281 0 8 0.297281 1
gene 3 9 51 0.0480209 0 9 0.0480209 1
gene 1 10 51 -0.00756859 0 10 -0.00756859 1
gene 2 11 51 -0.136647 0 11 -0.136647 1
gene 3 12 51 -0.130696 0 12 -0.130696 1
gene 2 13 51 -0.0376141 0 13 -0.0376141 1
gene 2 14 51 -0.00146489 0 14 -0.00146489 1
gene 1 15 51 -0.520783 0 15 -0.520783 1
gene 3 16 51 0.395077 0 16 0.395077 1
gene 2 17 51 0.19866 0 17 0.19866 1
gene 3 18 51 0.0440229 0 18 0.0440229 1
gene 2 19 51 0.230796 0 19 0.230796 1
gene 1 20 51 -0.711951 0 20 -0.711951 1
gene 3 21 51 0.405103 0 21 0.405103 1
gene 2 22 51 0.478607 0 22 0.478607 1
gene 3 23 51 0.0897397 0 23 0.0897397 1
gene 3 24 51 0.226966 0 24 0.226966 1
gene 3 25 51 0.872707 0 25 0.872707 1
gene 2 26 51 -0.385174 0 26 -0.385174 1
gene 3 27 51 -0.430876 0 27 -0.430876 1
gene 3 28 51 -0.56621 0 28 -0.56621 1
gene 2 29 51 0.0585955 0 29 0.0585955 1
gene 1 30 51 0.00903348 0 30 0.00903348 1
gene 2 31 51 0.156178 0 31 0.156178 1
gene 2 32 51 -0.408017 0 32 -0.408017 1
gene 3 33 51 -0.274499 0 33 -0.274499 1
gene 1 34 51 -0.493606 0 34 -0.493606 1
gene 2 35 51 -0.606357 0 35 -0.606357 1
gene 2 36 51 0.0804773 0 36 0.0804773 1
gene 2 37 51 0.20542 0 37 0.20542 1
gene 1 38 51 -0.123188 0 38 -0.123188 1
gene 3 39 51 -0.453734 0 39 -0.453734 1
gene 3 40 51 0.188269 0 40 0.188269 1
gene 1 41 51 -0.515458 0 41 -0.515458 1
gene 1 42 51 -0.0860775 0 42 -0.0860775 1
gene 1 43 51 -0.324366 0 43 -0.324366 1
gene 1 44 51 0.698813 0 44 0.698813 1
gene 3 45 51 -0.676 0 45 -0.676 1
gene 3 46 51 -0.0526292 0 46 -0.0526292 1
gene 2 47 51 -0.179861 0 47 -0.179861 1
gene 3 48 51 -0.155049 0 48 -0.155049 1
gene 1 49 51 0.140217 0 49 0.140217 1
gene 2 50 51 -0.777841 0 50 -0.777841 1
gene 3 1 52 0.805322 0 51 0.805322 1
gene 2 2 52 0.0417493 0 52 0.0417493 1
gene 2 3 52 0.0675832 0 53 0.0675832 1
gene 3 4 52 -0.389431 0 54 -0.389431 1
gene 2 5 52 -0.339518 0 55 -0.339518 1
gene 1 6 52 0.416135 0 56 0.416135 1
gene 3 7 52 0.536348 0 57 0.536348 1
gene 3 8 52 0.0999939 0 58 0.0999939 1
gene 1 9 52 -0.0791498 0 59 -0.0791498 1
gene 2 10 52 -0.0287332 0 60 -0.0287332 1
gene 2 11 52 -0.0869472 0 61 -0.0869472 1
gene 3 12 52 0.804163 0 62 0.804163 1
gene 3 13 52 -0.360561 0 63 -0.360561 1
gene 2 14 52 -0.0229194 0 64 -0.0229194 1
gene 2 15 52 -0.681448 0 65 -0.681448 1
gene 1 16 52 -0.281075 0 66 -0.281075 1
gene 1 17 52 -0.536164 0 67 -0.536164 1
gene 3 18 52 0.273629 0 68 0.273629 1
gene 2 19 52 -0.19686 0 69 -0.19686 1
gene 1 20 52 0.219275 0 70 0.219275 1
gene 3 21 52 0.339228 0 71 0.339228 1
gene 1 22 52 -0.333079 0 72 -0.333079 1
gene 1 23 52 -0.0856197 0 73 -0.0856197 1
gene 2 24 52 -0.0901059 0 74 -0.0901059 1
gene 1 25 52 0.255425 0 75 0.255425 1
gene 1 26 52 0.316736 0 76 0.316736 1
gene 2 27 52 -0.318552 0 77 -0.318552 1
gene 3 28 52 0.687826 0 78 0.687826 1
gene 3 29 52 -0.313898 0 79 -0.313898 1
gene 1 30 52 0.482452 0 80 0.482452 1
gene 1 31 52 0.0133213 0 81 0.0133213 1
gene 3 32 52 0.0116886 0 82 0.0116886 1
gene 1 33 52 -0.368511 0 83 -0.368511 1
gene 2 34 52 -0.31193 0 84 -0.31193 1
gene 3 35 52 -0.185858 0 85 -0.185858 1
gene 3 36 52 0.230613 0 86 0.230613 1
gene 2 37 52 -0.027543 0 87 -0.027543 1
gene 2 38 52 -0.374432 0 88 -0.374432 1
gene 1 39 52 0.200705 0 89 0.200705 1
gene 1 40 52 -0.548708 0 90 -0.548708 1
gene 2 41 52 -0.129643 0 91 -0.129643 1
gene 2 42 52 0.342372 0 92 0.342372 1
gene 1 43 52 -0.125446 0 93 -0.125446 1
gene 2 44 52 0.789377 0 94 0.789377 1
gene 2 45 52 0.243416 0 95 0.243416 1
gene 3 46 52 -0.260186 0 96 -0.260186 1
gene 3 47 52 -0.0813623 0 97 -0.0813623 1
gene 3 48 52 -0.390103 0 98 -0.390103 1
gene 1 49 52 0.183615 0 99 0.183615 1
gene 3 50 52 -0.169729 0 100 -0.169729 1
gene 3 1 53 -0.51268 0 101 -0.51268 1
gene 1 2 53 0.396283 0 102 0.396283 1
gene 3 3 53 -0.751885 0 103 -0.751885 1
gene 2 4 53 -0.821986 0 104 -0.821986 1
gene 2 5 53 -0.255837 0 105 -0.255837 1
gene 1 6 53 -0.112339 0 106 -0.112339 1
gene 1 7 53 0.365581 0 107 0.365581 1
gene 3 8 53 -0.920087 0 108 -0.920087 1
gene 1 9 53 -0.113285 0 109 -0.113285 1
gene 3 10 53 -0.0492874 0 110 -0.0492874 1
gene 2 11 53 -0.287591 0 111 -0.287591 1
gene 2 12 53 0.290292 0 112 0.290292 1
gene 2 13 53 0.215888 0 113 0.215888 1
gene 2 14 53 0.314554 0 114 0.314554 1
gene 2 15 53 0.450148 0 115 0.450148 1
gene 2 16 53 0.426603 0 116 0.426603 1
gene 3 17 53 -0.70893 0 117 -0.70893 1
gene 2 18 53 0.226783 0 118 0.226783 1
gene 2 19 53 -0.17951 0 119 -0.17951 1
gene 3 20 53 -0.261696 0 120 -0.261696 1
gene 3 21 53 -0.30813 0 121 -0.30813 1
gene 1 22 53 -0.697317 0 122 -0.697317 1
gene 2 23 53 -0.315806 0 123 -0.315806 1
gene 2 24 53 -0.0924863 0 124 -0.0924863 1
gene 1 25 53 -0.337809 0 125 -0.337809 1
gene 3 26 53 0.185507 0 126 0.185507 1
gene 3 27 53 0.360897 0 127 0.360897 1
gene 1 28 53 -0.0216681 0 128 -0.0216681 1
gene 2 29 53 -0.429029 0 129 -0.429029 1
gene 1 30 53 0.33816 0 130 0.33816 1
gene 1 31 53 0.271889 0 131 0.271889 1
gene 3 32 53 0.605579 0 132 0.605579 1
gene 1 33 53 -0.384808 0 133 -0.384808 1
gene 3 34 53 0.151555 0 134 0.151555 1
gene 3 35 53 -0.20304 0 135 -0.20304 1
gene 3 36 53 -0.57181 0 136 -0.57181 1
gene 2 37 53 0.283029 0 137 0.283029 1
gene 1 38 53 0.541307 0 138 0.541307 1
gene 3 39 53 -0.0649281 0 139 -0.0649281 1
gene 1 40 53 -0.633427 0 140 -0.633427 1
gene 2 41 53 0.14922 0 141 0.14922 1
gene 3 42 53 -0.0667135 0 142 -0.0667135 1
gene 3 43 53 0.321909 0 143 0.321909 1
gene 3 44 53 -0.08652 0 144 -0.08652 1
gene 3 45 53 0.328913 0 145 0.328913 1
gene 1 46 53 0.60622 0 146 0.60622 1
gene 3 47 53 -0.149632 0 147 -0.149632 1
gene 3 48 53 -0.779061 0 148 -0.779061 1
gene 3 49 53 -0.0673391 0 149 -0.0673391 1
gene 2 50 53 0.0398572 0 150 0.0398572 1
gene 2 1 54 0.214072 0 151 0.214072 1
gene 3 2 54 -0.750679 0 152 -0.750679 1
gene 3 3 54 -0.063921 0 153 -0.063921 1
gene 1 4 54 0.10358 0 154 0.10358 1
gene 3 5 54 0.4626 0 155 0.4626 1
gene 1 6 54 -0.275719 0 156 -0.275719 1
gene 3 7 54 -0.663167 0 157 -0.663167 1
gene 1 8 54 -0.00952177 0 158 -0.00952177 1
gene 3 9 54 0.227912 0 159 0.227912 1
gene 3 10 54 -0.0604114 0 160 -0.0604114 1
gene 1 11 54 0.458525 0 161 0.458525 1
gene 3 12 54 -0.378414 0 162 -0.378414 1
gene 3 13 54 0.182913 0 163 0.182913 1
gene 1 14 54 -0.412717 0 164 -0.412717 1
gene 2 15 54 -0.298761 0 165 -0.298761 1
gene 1 16 54 0.588305 0 166 0.588305 1
gene 2 17 54 0.120426 0 167 0.120426 1
gene 3 18 54 -0.347484 0 168 -0.347484 1
gene 2 19 54 0.16097 0 169 0.16097 1
gene 2 20 54 -0.126164 0 170 -0.126164 1
gene 2 21 54 -0.00914029 0 171 -0.00914029 1
gene 3 22 54 0.336146 0 172 0.336146 1
gene 3 23 54 0.270943 0 173 0.270943 1
gene 2 24 54 0.522095 0 174 0.522095 1
gene 3 25 54 -0.0397961 0 175 -0.0397961 1
gene 1 26 54 0.126896 0 176 0.126896 1
gene 2 27 54 0.0439009 0 177 0.0439009 1
gene 2 28 54 -0.379162 0 178 -0.379162 1
gene 3 29 54 -0.0601062 0 179 -0.0601062 1
gene 2 30 54 -0.140706 0 180 -0.140706 1
gene 2 31 54 -0.0830561 0 181 -0.0830561 1
gene 3 32 54 -0.171636 0 182 -0.171636 1
gene 1 33 54 0.0444655 0 183 0.0444655 1
gene 2 34 54 0.308512 0 184 0.308512 1
gene 3 35 54 0.398221 0 185 0.398221 1
gene 1 36 54 -0.394391 0 186 -0.394391 1
gene 1 37 54 -0.138508 0 187 -0.138508 1
gene 1 38 54 -0.0817286 0 188 -0.0817286 1
gene 1 39 54 0.0751366 0 189 0.0751366 1
gene 2 40 54 -0.299478 0 190 -0.299478 1
gene 3 41 54 0.684622 0 191 0.684622 1
gene 2 42 54 0.156331 0 192 0.156331 1
gene 3 43 54 0.327509 0 193 0.327509 1
gene 3 44 54 0.585589 0 194 0.585589 1
gene 3 45 54 0.161626 0 195 0.161626 1
gene 2 46 54 -0.454772 0 196 -0.454772 1
gene 3 47 54 -0.126591 0 197 -0.126591 1
gene 2 48 54 0.385052 0 198 0.385052 1
gene 1 49 54 0.729194 0 199 0.729194 1
gene 2 50 54 0.201254 0 200 0.201254 1
gene 2 1 55 0.165639 0 201 0.165639 1
gene 2 2 55 0.113025 0 202 0.113025 1
gene 3 3 55 -0.886334 0 203 -0.886334 1
gene 3 4 55 -0.0906095 0 204 -0.0906095 1
gene 1 5 55 0.318018 0 205 0.318018 1
gene 2 6 55 0.430586 0 206 0.430586 1
gene 1 7 55 -0.176641 0 207 -0.176641 1
gene 3 8 55 0.386883 0 208 0.386883 1
gene 3 9 55 0.0650349 0 209 0.0650349 1
gene 1 10 55 -0.761834 0 210 -0.761834 1
gene 3 11 55 -0.392544 0 211 -0.392544 1
gene 3 12 55 0.488937 0 212 0.488937 1
gene 3 13 55 -0.497406 0 213 -0.497406 1
gene 3 14 55 0.0155187 0 214 0.0155187 1
gene 1 15 55 -0.08446 0 215 -0.08446 1
gene 2 16 55 0.621601 0 216 0.621601 1
gene 1 17 55 0.274697 0 217 0.274697 1
gene 3 18 55 -0.409619 0 218 -0.409619 1
gene 2 19 55 0.165609 0 219 0.165609 1
gene 3 20 55 0.57915 0 220 0.57915 1
gene 1 21 55 -0.11951 0 221 -0.11951 1
gene 3 22 55 -0.476119 0 222 -0.476119 1
gene 1 23 55 -0.438383 0 223 -0.438383 1
gene 1 24 55 0.5009 0 224 0.5009 1
gene 1 25 55 0.495376 0 225 0.495376 1
gene 1 26 55 -0.476012 0 226 -0.476012 1
gene 3 27 55 0.0751061 0 227 0.0751061 1
gene 3 28 55 0.484909 0 228 0.484909 1
gene 1 29 55 -0.247993 0 229 -0.247993 1
gene 1 30 55 -0.355342 0 230 -0.355342 1
gene 1 31 55 -0.670751 0 231 -0.670751 1
gene 2 32 55 0.168661 0 232 0.168661 1
gene 2 33 55 0.204459 0 233 0.204459 1
gene 2 34 55 -0.313074 0 234 -0.313074 1
gene 1 35 55 -0.477783 0 235 -0.477783 1
gene 1 36 55 -0.0348979 0 236 -0.0348979 1
gene 1 37 55 -0.443297 0 237 -0.443297 1
gene 1 38 55 0.221381 0 238 0.221381 1
gene 3 39 55 0.382931 0 239 0.382931 1
gene 3 40 55 -0.109958 0 240 -0.109958 1
gene 2 41 55 -0.456099 0 241 -0.456099 1
gene 1 42 55 -0.417234 0 242 -0.417234 1
gene 3 43 55 0.343989 0 243 0.343989 1
gene 1 44 55 -0.304727 0 244 -0.304727 1
gene 3 45 55 -0.724998 0 245 -0.724998 1
gene 2 46 55 0.119694 0 246 0.119694 1
gene 3 47 55 -0.642003 0 247 -0.642003 1
gene 1 48 55 -0.56415 0 248 -0.56415 1
gene 1 49 55 0.839808 0 249 0.839808 1
gene 2 50 55 -0.300485 0 250 -0.300485 1
gene 3 1 56 -0.68984 0 251 -0.68984 1
gene 1 2 56 0.627598 0 252 0.627598 1
gene 1 3 56 -0.220496 0 253 -0.220496 1
gene 3 4 56 -0.301325 0 254 -0.301325 1
gene 3 5 56 -0.318674 0 255 -0.318674 1
gene 3 6 56 -0.803095 0 256 -0.803095 1
gene 2 7 56 -0.104633 0 257 -0.104633 1
gene 2 8 56 0.43231 0 258 0.43231 1
gene 1 9 56 0.0919675 0 259 0.0919675 1
gene 2 10 56 -0.0611591 0 260 -0.0611591 1
gene 2 11 56 0.840861 0 261 0.840861 1
gene 3 12 56 0.734916 0 262 0.734916 1
gene 1 13 56 0.0219123 0 263 0.0219123 1
gene 1 14 56 -0.134754 0 264 -0.134754 1
gene 1 15 56 0.830561 0 265 0.830561 1
gene 1 16 56 0.0945463 0 266 0.0945463 1
gene 1 17 56 0.690893 0 267 0.690893 1
gene 1 18 56 0.234306 0 268 0.234306 1
gene 1 19 56 -0.489837 0 269 -0.489837 1
gene 3 20 56 -0.0725578 0 270 -0.0725578 1
gene 3 21 56 -0.0213172 0 271 -0.0213172 1
gene 3 22 56 0.567278 0 272 0.567278 1
gene 3 23 56 -0.0286416 0 273 -0.0286416 1
gene 3 24 56 0.00344859 0 274 0.00344859 1
gene 1 25 56 0.134373 0 275 0.134373 1
gene 1 26 56 -0.516923 0 276 -0.516923 1
gene 3 27 56 0.573366 0 277 0.573366 1
gene 2 28 56 -0.700797 0 278 -0.700797 1
gene 3 29 56 0.257378 0 279 0.257378 1
gene 2 30 56 0.0720389 0 280 0.0720389 1
gene 2 31 56 -0.0660573 0 281 -0.0660573 1
gene 2 32 56 0.144536 0 282 0.144536 1
gene 2 33 56 0.932371 0 283 0.932371 1
gene 2 34 56 0.135319 0 284 0.135319 1
gene 3 35 56 0.553041 0 285 0.553041 1
gene 1 36 56 0.502869 0 286 0.502869 1
gene 1 37 56 -0.830378 0 287 -0.830378 1
gene 1 38 56 -0.227729 0 288 -0.227729 1
gene 2 39 56 0.0776391 0 289 0.0776391 1
gene 2 40 56 0.5824 0 290 0.5824 1
gene 3 41 56 0.668828 0 291 0.668828 1
gene 2 42 56 -0.740898 0 292 -0.740898 1
gene 3 43 56 -0.0723746 0 293 -0.0723746 1
gene 1 44 56 -0.109897 0 294 -0.109897 1
gene 3 45 56 0.429701 0 295 0.429701 1
gene 3 46 56 0.215979 0 296 0.215979 1
gene 3 47 56 0.158635 0 297 0.158635 1
gene 1 48 56 0.131932 0 298 0.131932 1
gene 3 49 56 0.0685751 0 299 0.0685751 1
gene 2 50 56 0.604236 0 300 0.604236 1
gene 2 1 57 -0.299585 0 301 -0.299585 1
gene 2 2 57 -0.767388 0 302 -0.767388 1
gene 1 3 57 0.882626 0 303 0.882626 1
gene 2 4 57 -0.188482 0 304 -0.188482 1
gene 2 5 57 -0.275903 0 305 -0.275903 1
gene 1 6 57 -0.315241 0 306 -0.315241 1
gene 2 7 57 -0.637547 0 307 -0.637547 1
gene 3 8 57 -0.272301 0 308 -0.272301 1
gene 1 9 57 0.753731 0 309 0.753731 1
gene 3 10 57 0.509629 0 310 0.509629 1
gene 3 11 57 0.401746 0 311 0.401746 1
gene 3 12 57 -0.553484 0 312 -0.553484 1
gene 3 13 57 0.666097 0 313 0.666097 1
gene 1 14 57 -0.199576 0 314 -0.199576 1
gene 3 15 57 0.588885 0 315 0.588885 1
gene 3 16 57 -0.122303 0 316 -0.122303 1
gene 1 17 57 -0.132282 0 317 -0.132282 1
gene 1 18 57 -0.402295 0 318 -0.402295 1
gene 3 19 57 -0.0119785 0 319 -0.0119785 1
gene 2 20 57 -0.194647 0 320 -0.194647 1
gene 2 21 57 0.328974 0 321 0.328974 1
gene 1 22 57 0.558626 0 322 0.558626 1
gene 2 23 57 0.767556 0 323 0.767556 1
gene 3 24 57 -0.124165 0 324 -0.124165 1
gene 2 25 57 0.0610675 0 325 0.0610675 1
gene 2 26 57 -0.575549 0 326 -0.575549 1
gene 2 27 57 0.301691 0 327 0.301691 1
gene 1 28 57 0.273476 0 328 0.273476 1
gene 1 29 57 0.0197455 0 329 0.0197455 1
gene 2 30 57 0.562243 0 330 0.562243 1
gene 1 31 57 -0.428312 0 331 -0.428312 1
gene 1 32 57 -0.0314035 0 332 -0.0314035 1
gene 1 33 57 0.352626 0 333 0.352626 1
gene 2 34 57 -0.165624 0 334 -0.165624 1
gene 3 35 57 0.847316 0 335 0.847316 1
gene 2 36 57 -0.475265 0 336 -0.475265 1
gene 3 37 57 0.101779 0 337 0.101779 1
gene 1 38 57 0.411817 0 338 0.411817 1
gene 1 39 57 -0.597232 0 339 -0.597232 1
gene 1 40 57 0.00572222 0 340 0.00572222 1
gene 1 41 57 0.0403912 0 341 0.0403912 1
gene 3 42 57 -0.38081 0 342 -0.38081 1
gene 2 43 57 -0.346644 0 343 -0.346644 1
gene 3 44 57 -0.567568 0 344 -0.567568 1
gene 3 45 57 -0.0105289 0 345 -0.0105289 1
gene 1 46 57 0.17246 0 346 0.17246 1
gene 3 47 57 0.0227363 0 347 0.0227363 1
gene 3 48 57 -0.647832 0 348 -0.647832 1
gene 2 49 57 -0.495132 0 349 -0.495132 1
gene 3 50 57 -0.414914 0 350 -0.414914 1
gene 2 1 58 -0.577685 0 351 -0.577685 1
gene 3 2 58 -0.409757 0 352 -0.409757 1
gene 2 3 58 -0.0697501 0 353 -0.0697501 1
gene 2 4 58 -0.399945 0 354 -0.399945 1
gene 2 5 58 0.235313 0 355 0.235313 1
gene 3 6 58 0.0810419 0 356 0.0810419 1
gene 3 7 58 -0.424375 0 357 -0.424375 1
gene 1 8 58 -0.345103 0 358 -0.345103 1
gene 3 9 58 -0.761956 0 359 -0.761956 1
gene 1 10 58 -0.0779595 0 360 -0.0779595 1
gene 1 11 58 0.0599994 0 361 0.0599994 1
gene 3 12 58 0.340663 0 362 0.340663 1
gene 1 13 58 -0.407956 0 363 -0.407956 1
gene 3 14 58 -0.12421 0 364 -0.12421 1
gene 2 15 58 -0.399319 0 365 -0.399319 1
gene 1 16 58 -0.596866 0 366 -0.596866 1
gene 1 17 58 0.193686 0 367 0.193686 1
gene 2 18 58 0.121143 0 368 0.121143 1
gene 2 19 58 0.390683 0 369 0.390683 1
gene 3 20 58 -0.327952 0 370 -0.327952 1
gene 1 21 58 -0.304163 0 371 -0.304163 1
gene 2 22 58 -0.0518509 0 372 -0.0518509 1
gene 1 23 58 -0.452879 0 373 -0.452879 1
gene 3 24 58 -0.233192 0 374 -0.233192 1
gene 2 25 58 -0.7228 0 375 -0.7228 1
gene 2 26 58 0.342891 0 376 0.342891 1
gene 2 27 58 -0.479934 0 377 -0.479934 1
gene 2 28 58 0.65186 0 378 0.65186 1
gene 1 29 58 -0.548891 0 379 -0.548891 1
gene 2 30 58 0.268151 0 380 0.268151 1
gene 2 31 58 -0.425947 0 381 -0.425947 1
gene 1 32 58 -0.247047 0 382 -0.247047 1
gene 2 33 58 0.0167089 0 383 0.0167089 1
gene 3 34 58 0.0231635 0 384 0.0231635 1
gene 2 35 58 0.41026 0 385 0.41026 1
gene 2 36 58 -0.0785699 0 386 -0.0785699 1
gene 1 37 58 -0.140812 0 387 -0.140812 1
gene 3 38 58 -0.402707 0 388 -0.402707 1
gene 3 39 58 0.0906858 0 389 0.0906858 1
gene 3 40 58 0.408826 0 390 0.408826 1
gene 2 41 58 -0.407712 0 391 -0.407712 1
gene 2 42 58 0.419279 0 392 0.419279 1
gene 1 43 58 -0.0547044 0 393 -0.0547044 1
gene 2 44 58 -0.158452 0 394 -0.158452 1
gene 2 45 58 0.342967 0 395 0.342967 1
gene 1 46 58 0.428236 0 396 0.428236 1
gene 2 47 58 0.411847 0 397 0.411847 1
gene 1 48 58 0.827723 0 398 0.827723 1
gene 1 49 58 0.240043 0 399 0.240043 1
gene 3 50 58 0.544633 0 400 0.544633 1
gene 2 1 59 -0.554353 0 401 -0.554353 1
gene 2 2 59 0.182653 0 402 0.182653 1
gene 2 3 59 -0.356655 0 403 -0.356655 1
gene 2 4 59 -0.213828 0 404 -0.213828 1
gene 1 5 59 -0.185293 0 405 -0.185293 1
gene 3 6 59 -0.114277 0 406 -0.114277 1
gene 3 7 59 -0.719153 0 407 -0.719153 1
gene 1 8 59 0.39584 0 408 0.39584 1
gene 3 9 59 -0.0146489 0 409 -0.0146489 1
gene 2 10 59 0.47644 0 410 0.47644 1
gene 3 11 59 -0.699103 0 411 -0.699103 1
gene 2 12 59 0.205023 0 412 0.205023 1
gene 1 13 59 0.0683004 0 413 0.0683004 1
gene 2 14 59 -0.0695669 0 414 -0.0695669 1
gene 2 15 59 0.0152135 0 415 0.0152135 1
gene 1 16 59 -0.277795 0 416 -0.277795 1
gene 3 17 59 0.917447 0 417 0.917447 1
gene 3 18 59 0.00283822 0 418 0.00283822 1
gene 3 19 59 -0.232994 0 419 -0.232994 1
gene 2 20 59 -0.338649 0 420 -0.338649 1
gene 1 21 59 -0.492035 0 421 -0.492035 1
gene 2 22 59 -0.854961 0 422 -0.854961 1
gene 3 23 59 0.489822 0 423 0.489822 1
gene 2 24 59 0.067156 0 424 0.067156 1
gene 2 25 59 0.0509354 0 425 0.0509354 1
gene 1 26 59 0.26339 0 426 0.26339 1
gene 3 27 59 0.189779 0 427 0.189779 1
gene 1 28 59 -0.258568 0 428 -0.258568 1
gene 1 29 59 0.372784 0 429 0.372784 1
gene 1 30 59 -0.181784 0 430 -0.181784 1
gene 1 31 59 -0.695547 0 431 -0.695547 1
gene 1 32 59 -0.0123295 0 432 -0.0123295 1
gene 1 33 59 -0.115696 0 433 -0.115696 1
gene 1 34 59 -0.0670492 0 434 -0.0670492 1
gene 3 35 59 -0.0598315 0 435 -0.0598315 1
gene 3 36 59 0.361293 0 436 0.361293 1
gene 2 37 59 0.253227 0 437 0.253227 1
gene 1 38 59 -0.342448 0 438 -0.342448 1
gene 3 39 59 -0.271249 0 439 -0.271249 1
gene 1 40 59 -0.49765 0 440 -0.49765 1
gene 1 41 59 0.59032 0 441 0.59032 1
gene 2 42 59 -0.312586 0 442 -0.312586 1
gene 2 43 59 0.228462 0 443 0.228462 1
gene 3 44 59 -0.36523 0 444 -0.36523 1
gene 1 45 59 0.0652486 0 445 0.0652486 1
gene 1 46 59 -0.577761 0 446 -0.577761 1
gene 2 47 59 -0.476302 0 447 -0.476302 1
gene 3 48 59 -0.508606 0 448 -0.508606 1
gene 3 49 59 0.77224 0 449 0.77224 1
gene 3 50 59 0.197211 0 450 0.197211 1
gene 2 11 60 -0.213874 0 453 -0.213874 1
genomeend 61

/* Organism #279 Fitness: 7 Error: 0 */
genomestart 279
trait 1 0.1 0 0 0 0 0 0 0 
trait 2 0.2 0.293649 0 0 0 0 0.0985443 0 
trait 3 0.3 0 0 0 0 0 0 0 
node 1 2 1 1
node 2 3 1 1
node 3 1 1 1
node 4 3 1 1
node 5 1 1 1
node 6 2 1 1
node 7 3 1 1
node 8 1 1 1
node 9 3 1 1
node 10 2 1 1
node 11 3 1 1
node 12 1 1 1
node 13 3 1 1
node 14 2 1 1
node 15 3 1 1
node 16 3 1 1
node 17 3 1 1
node 18 1 1 1
node 19 3 1 1
node 20 3 1 1
node 21 2 1 1
node 22 2 1 1
node 23 2 1 1
node 24 2 1 1
node 25 1 1 1
node 26 2 1 1
node 27 2 1 1
node 28 1 1 1
node 29 3 1 1
node 30 1 1 1
node 31 1 1 1
node 32 2 1 1
node 33 1 1 1
node 34 2 1 1
node 35 1 1 1
node 36 2 1 1
node 37 1 1 1
node 38 3 1 1
node 39 1 1 1
node 40 1 1 1
node 41 3 1 1
node 42 2 1 1
node 43 1 1 1
node 44 1 1 1
node 45 1 1 1
node 46 2 1 1
node 47 1 1 1
node 48 2 1 1
node 49 2 1 1
node 50 1 1 3
node 51 2 0 2
node 52 3 0 2
node 53 3 0 2
node 54 2 0 2
node 55 3 0 2
node 56 2 0 2
node 57 2 0 2
node 58 3 0 2
node 59 3 0 2
node 60 2 0 2
gene 3 1 51 0.81399 0 1 0.81399 1
gene 2 2 51 -1.17766 0 2 -1.17766 1
gene 3 3 51 0.737571 0 3 0.737571 1
gene 1 4 51 0.065508 0 4 0.065508 1
gene 2 5 51 -0.579592 0 5 -0.579592 1
gene 3 6 51 -2.76925 0 6 -2.76925 1
gene 1 7 51 -1.7054 0 7 -1.7054 1
gene 3 8 51 0.0487838 0 8 0.0487838 1
gene 3 9 51 2.46005 0 9 2.46005 1
gene 1 10 51 1.5195 0 10 1.5195 1
gene 2 11 51 -2.61834 0 11 -2.61834 1
gene 3 12 51 -0.888852 0 12 -0.888852 1
gene 2 13 51 1.89032 0 13 1.89032 1
gene 2 14 51 -1.99287 0 14 -1.99287 1
gene 1 15 51 0.619312 0 15 0.619312 1
gene 3 16 51 2.66588 0 16 2.66588 1
gene 2 17 51 -1.62871 0 17 -1.62871 1
gene 3 18 51 -1.75726 0 18 -1.75726 1
gene 2 19 51 0.69689 0 19 0.69689 1
gene 1 20 51 -1.38885 0 20 -1.38885 1
gene 3 21 51 1.21476 0 21 1.21476 1
gene 2 22 51 2.65061 0 22 2.65061 1
gene 3 23 51 -0.370708 0 23 -0.370708 1
gene 3 24 51 0.132359 0 24 0.132359 1
gene 3 25 51 -0.632237 0 25 -0.632237 1
gene 2 26 51 -0.182531 0 26 -0.182531 1
gene 3 27 51 -0.64153 0 27 -0.64153 1
gene 3 28 51 0.115955 0 28 0.115955 1
gene 2 29 51 -0.72779 0 29 -0.72779 1
gene 1 30 51 1.6977 0 30 1.6977 1
gene 2 31 51 0.860012 0 31 0.860012 1
gene 2 32 51 1.04222 0 32 1.04222 1
gene 3 33 51 -0.357356 0 33 -0.357356 1
gene 1 34 51 -1.92767 0 34 -1.92767 1
gene 2 35 51 -0.467574 0 35 -0.467574 1
gene 2 36 51 0.654988 0 36 0.654988 1
gene 2 37 51 0.897046 0 37 0.897046 1
gene 1 38 51 -1.18752 0 38 -1.18752 1
gene 3 39 51 -2.19268 0 39 -2.19268 1
gene 3 40 51 -0.51999 0 40 -0.51999 1
gene 1 41 51 -2.10578 0 41 -2.10578 1
gene 1 42 51 1.75274 0 42 1.75274 1
gene 1 43 51 -1.8889 0 43 -1.8889 1
gene 1 44 51 -1.09606 0 44 -1.09606 1
gene 3 45 51 1.57375 0 45 1.57375 1
gene 3 46 51 -2.51547 0 46 -2.51547 1
gene 2 47 51 1.14533 0 47 1.14533 1
gene 3 48 51 1.225 0 48 1.225 1
gene 1 49 51 0.586779 0 49 0.586779 1
gene 2 50 51 -2.67869 0 50 -2.67869 1
gene 3 1 52 1.99791 0 51 1.99791 1
gene 2 2 52 -2.38318 0 52 -2.38318 1
gene 2 3 52 -0.00787378 0 53 -0.00787378 1
gene 3 4 52 1.79897 0 54 1.79897 1
gene 2 5 52 -0.452208 0 55 -0.452208 1
gene 1 6 52 -0.701529 0 56 -0.701529 1
gene 3 7 52 1.99826 0 57 1.99826 1
gene 3 8 52 1.34492 0 58 1.34492 1
gene 1 9 52 -1.1975 0 59 -1.1975 1
gene 2 10 52 -2.21569 0 60 -2.21569 1
gene 2 11 52 1.58753 0 61 1.58753 1
gene 3 12 52 1.49014 0 62 1.49014 1
gene 3 13 52 1.28149 0 63 1.28149 1
gene 2 14 52 -1.73653 0 64 -1.73653 1
gene 2 15 52 1.65581 0 65 1.65581 1
gene 1 16 52 0.855129 0 66 0.855129 1
gene 1 17 52 0.79162 0 67 0.79162 1
gene 3 18 52 -2.17022 0 68 -2.17022 1
gene 2 19 52 -2.63956 0 69 -2.63956 1
gene 1 20 52 0.260475 0 70 0.260475 1
gene 3 21 52 -2.0052 0 71 -2.0052 1
gene 1 22 52 1.26807 0 72 1.26807 1
gene 1 23 52 1.07828 0 73 1.07828 1
gene 2 24 52 -2.07076 0 74 -2.07076 1
gene 1 25 52 -1.94206 0 75 -1.94206 1
gene 1 26 52 1.51596 0 76 1.51596 1
gene 2 27 52 0.34843 0 77 0.34843 1
gene 3 28 52 2.16805 0 78 2.16805 1
gene 3 29 52 -1.85577 0 79 -1.85577 1
gene 1 30 52 1.33659 0 80 1.33659 1
gene 1 31 52 1.43724 0 81 1.43724 1
gene 3 32 52 -0.812998 0 82 -0.812998 1
gene 1 33 52 -2.36305 0 83 -2.36305 1
gene 2 34 52 -0.909101 0 84 -0.909101 1
gene 3 35 52 -0.210501 0 85 -0.210501 1
gene 3 36 52 -0.139195 0 86 -0.139195 1
gene 2 37 52 1.41926 0 87 1.41926 1
gene 2 38 52 -1.56153 0 88 -1.56153 1
gene 1 39 52 2.19074 0 89 2.19074 1
gene 1 40 52 0.806772 0 90 0.806772 1
gene 2 41 52 1.74732 0 91 1.74732 1
gene 2 42 52 2.26496 0 92 2.26496 1
gene 1 43 52 1.95836 0 93 1.95836 1
gene 2 44 52 2.00691 0 94 2.00691 1
gene 2 45 52 -1.91913 0 95 -1.91913 1
gene 3 46 52 -1.21519 0 96 -1.21519 1
gene 3 47 52 -2.2069 0 97 -2.2069 1
gene 3 48 52 1.01077 0 98 1.01077 1
gene 1 49 52 -0.709433 0 99 -0.709433 1
gene 3 50 52 -0.770486 0 100 -0.770486 1
gene 3 1 53 0.790231 0 101 0.790231 1
gene 1 2 53 0.224921 0 102 0.224921 1
gene 3 3 53 -2.43452 0 103 -2.43452 1
gene 2 4 53 -0.668249 0 104 -0.668249 1
gene 2 5 53 -1.74018 0 105 -1.74018 1
gene 1 6 53 -0.541429 0 106 -0.541429 1
gene 1 7 53 -0.616428 0 107 -0.616428 1
gene 3 8 53 0.277764 0 108 0.277764 1
gene 1 9 53 -0.14449 0 109 -0.14449 1
gene 3 10 53 -0.0292215 0 110 -0.0292215 1
gene 2 11 53 -1.17911 0 111 -1.17911 1
gene 2 12 53 0.709845 0 112 0.709845 1
gene 2 13 53 0.104953 0 113 0.104953 1
gene 2 14 53 -1.73476 0 114 -1.73476 1
gene 2 15 53 -1.52333 0 115 -1.52333 1
gene 2 16 53 -1.99382 0 116 -1.99382 1
gene 3 17 53 0.29986 0 117 0.29986 1
gene 2 18 53 0.41966 0 118 0.41966 1
gene 2 19 53 0.884899 0 119 0.884899 1
gene 3 20 53 -0.291147 0 120 -0.291147 1
gene 3 21 53 0.632527 0 121 0.632527 1
gene 1 22 53 0.81373 0 122 0.81373 1
gene 2 23 53 1.27207 0 123 1.27207 1
gene 2 24 53 -2.20833 0 124 -2.20833 1
gene 1 25 53 2.02814 0 125 2.02814 1
gene 3 26 53 1.94543 0 126 1.94543 1
gene 3 27 53 1.72767 0 127 1.72767 1
gene 1 28 53 -1.4227 0 128 -1.4227 1
gene 2 29 53 1.87031 0 129 1.87031 1
gene 1 30 53 1.04276 0 130 1.04276 1
gene 1 31 53 0.707923 0 131 0.707923 1
gene 3 32 53 -1.66637 0 132 -1.66637 1
gene 1 33 53 -0.50856 0 133 -0.50856 1
gene 3 34 53 2.58312 0 134 2.58312 1
gene 3 35 53 1.15198 0 135 1.15198 1
gene 3 36 53 0.520753 0 136 0.520753 1
gene 2 37 53 -0.120121 0 137 -0.120121 1
gene 1 38 53 1.20211 0 138 1.20211 1
gene 3 39 53 1.95486 0 139 1.95486 1
gene 1 40 53 -2.15073 0 140 -2.15073 1
gene 2 41 53 -0.544923 0 141 -0.544923 1
gene 3 42 53 -1.62575 0 142 -1.62575 1
gene 3 43 53 -0.653996 0 143 -0.653996 1
gene 3 44 53 -2.38937 0 144 -2.38937 1
gene 3 45 53 -1.53043 0 145 -1.53043 1
gene 1 46 53 2.15748 0 146 2.15748 1
gene 3 47 53 0.0813929 0 147 0.0813929 1
gene 3 48 53 -0.658055 0 148 -0.658055 1
gene 3 49 53 0.812052 0 149 0.812052 1
gene 2 50 53 -0.0942717 0 150 -0.0942717 1
gene 2 1 54 -0.352962 0 151 -0.352962 1
gene 3 2 54 1.62069 0 152 1.62069 1
gene 3 3 54 1.10166 0 153 1.10166 1
gene 1 4 54 -0.0844905 0 154 -0.0844905 1
gene 3 5 54 -1.39018 0 155 -1.39018 1
gene 1 6 54 2.21741 0 156 2.21741 1
gene 3 7 54 -0.290765 0 157 -0.290765 1
gene 1 8 54 0.779992 0 158 0.779992 1
gene 3 9 54 -0.62859 0 159 -0.62859 1
gene 3 10 54 -0.338588 0 160 -0.338588 1
gene 1 11 54 1.16861 0 161 1.16861 1
gene 3 12 54 -0.354457 0 162 -0.354457 1
gene 3 13 54 -1.37559 0 163 -1.37559 1
gene 1 14 54 -2.59647 0 164 -2.59647 1
gene 2 15 54 1.45819 0 165 1.45819 1
gene 1 16 54 0.886319 0 166 0.886319 1
gene 2 17 54 -0.342769 0 167 -0.342769 1
gene 3 18 54 1.2967 0 168 1.2967 1
gene 2 19 54 -0.610996 0 169 -0.610996 1
gene 2 20 54 1.02614 0 170 1.02614 1
gene 2 21 54 -1.92135 0 171 -1.92135 1
gene 3 22 54 -1.54799 0 172 -1.54799 1
gene 3 23 54 0.778161 0 173 0.778161 1
gene 2 24 54 -1.55141 0 174 -1.55141 1
gene 3 25 54 -0.936201 0 175 -0.936201 1
gene 1 26 54 -1.10369 0 176 -1.10369 1
gene 2 27 54 2.06453 0 177 2.06453 1
gene 2 28 54 -0.0719932 0 178 -0.0719932 1
gene 3 29 54 0.808603 0 179 0.808603 1
gene 2 30 54 0.785073 0 180 0.785073 1
gene 2 31 54 -2.57108 0 181 -2.57108 1
gene 3 32 54 -1.34179 0 182 -1.34179 1
gene 1 33 54 -1.51175 0 183 -1.51175 1
gene 2 34 54 -0.130802 0 184 -0.130802 1
gene 3 35 54 -0.117924 0 185 -0.117924 1
gene 1 36 54 0.468749 0 186 0.468749 1
gene 1 37 54 1.63477 0 187 1.63477 1
gene 1 38 54 -0.362804 0 188 -0.362804 1
gene 1 39 54 -1.37976 0 189 -1.37976 1
gene 2 40 54 -2.08252 0 190 -2.08252 1
gene 3 41 54 2.91789 0 191 2.91789 1
gene 2 42 54 -2.1569 0 192 -2.1569 1
gene 3 43 54 0.537095 0 193 0.537095 1
gene 3 44 54 0.250114 0 194 0.250114 1
gene 3 45 54 1.02347 0 195 1.02347 1
gene 2 46 54 -0.391903 0 196 -0.391903 1
gene 3 47 54 -1.68059 0 197 -1.68059 1
gene 2 48 54 -1.86264 0 198 -1.86264 1
gene 1 49 54 1.33796 0 199 1.33796 1
gene 2 50 54 -1.33398 0 200 -1.33398 1
gene 2 1 55 -0.27665 0 201 -0.27665 1
gene 2 2 55 0.493133 0 202 0.493133 1
gene 3 3 55 1.37471 0 203 1.37471 1
gene 3 4 55 1.93429 0 204 1.93429 1
gene 1 5 55 -2.00398 0 205 -2.00398 1
gene 2 6 55 0.470717 0 206 0.470717 1
gene 1 7 55 2.07814 0 207 2.07814 1
gene 3 8 55 2.31619 0 208 2.31619 1
gene 3 9 55 1.01126 0 209 1.01126 1
gene 1 10 55 -2.55541 0 210 -2.55541 1
gene 3 11 55 -0.880612 0 211 -0.880612 1
gene 3 12 55 2.55 0 212 2.55 1
gene 3 13 55 -1.68366 0 213 -1.68366 1
gene 3 14 55 -1.76203 0 214 -1.76203 1
gene 1 15 55 0.549104 0 215 0.549104 1
gene 2 16 55 2.08161 0 216 2.08161 1
gene 1 17 55 -1.56946 0 217 -1.56946 1
gene 3 18 55 -2.42254 0 218 -2.42254 1
gene 2 19 55 -0.28515 0 219 -0.28515 1
gene 3 20 55 0.785379 0 220 0.785379 1
gene 1 21 55 0.845332 0 221 0.845332 1
gene 3 22 55 0.240913 0 222 0.240913 1
gene 1 23 55 -2.53691 0 223 -2.53691 1
gene 1 24 55 -1.73153 0 224 -1.73153 1
gene 1 25 55 1.6447 0 225 1.6447 1
gene 1 26 55 -0.360195 0 226 -0.360195 1
gene 3 27 55 -2.37255 0 227 -2.37255 1
gene 3 28 55 1.12084 0 228 1.12084 1
gene 1 29 55 2.11841 0 229 2.11841 1
gene 1 30 55 -2.11214 0 230 -2.11214 1
gene 1 31 55 -1.56403 0 231 -1.56403 1
gene 2 32 55 -0.32345 0 232 -0.32345 1
gene 2 33 55 2.47023 0 233 2.47023 1
gene 2 34 55 1.50789 0 234 1.50789 1
gene 1 35 55 1.68995 0 235 1.68995 1
gene 1 36 55 1.63126 0 236 1.63126 1
gene 1 37 55 1.04677 0 237 1.04677 1
gene 1 38 55 1.65697 0 238 1.65697 1
gene 3 39 55 2.03528 0 239 2.03528 1
gene 3 40 55 1.51569 0 240 1.51569 1
gene 2 41 55 -1.94395 0 241 -1.94395 1
gene 1 42 55 1.56983 0 242 1.56983 1
gene 3 43 55 -0.346721 0 243 -0.346721 1
gene 1 44 55 0.448698 0 244 0.448698 1
gene 3 45 55 -3.05074 0 245 -3.05074 1
gene 2 46 55 -0.312983 0 246 -0.312983 1
gene 3 47 55 -2.5427 0 247 -2.5427 1
gene 1 48 55 -0.404309 0 248 -0.404309 1
gene 1 49 55 1.34069 0 249 1.34069 1
gene 2 50 55 1.81338 0 250 1.81338 1
gene 3 1 56 -2.67682 0 251 -2.67682 1
gene 1 2 56 -1.36763 0 252 -1.36763 1
gene 1 3 56 -1.97447 0 253 -1.97447 1
gene 3 4 56 -1.36932 0 254 -1.36932 1
gene 3 5 56 -2.37257 0 255 -2.37257 1
gene 3 6 56 1.4594 0 256 1.4594 1
gene 2 7 56 1.27618 0 257 1.27618 1
gene 2 8 56 0.0908078 0 258 0.0908078 1
gene 1 9 56 0.509461 0 259 0.509461 1
gene 2 10 56 1.06825 0 260 1.06825 1
gene 2 11 56 -1.20495 0 261 -1.20495 1
gene 3 12 56 3.03708 0 262 3.03708 1
gene 1 13 56 0.440168 0 263 0.440168 1
gene 1 14 56 0.606769 0 264 0.606769 1
gene 1 15 56 -0.763268 0 265 -0.763268 1
gene 1 16 56 -1.35661 0 266 -1.35661 1
gene 1 17 56 -0.0429243 0 267 -0.0429243 1
gene 1 18 56 -0.30015 0 268 -0.30015 1
gene 1 19 56 0.373074 0 269 0.373074 1
gene 3 20 56 -2.30888 0 270 -2.30888 1
gene 3 21 56 -0.71218 0 271 -0.71218 1
gene 3 22 56 0.521195 0 272 0.521195 1
gene 3 23 56 -1.52565 0 273 -1.52565 1
gene 3 24 56 -1.86062 0 274 -1.86062 1
gene 1 25 56 -0.4438 0 275 -0.4438 1
gene 1 26 56 -2.24648 0 276 -2.24648 1
gene 3 27 56 -0.68453 0 277 -0.68453 1
gene 2 28 56 -0.0885189 0 278 -0.0885189 1
gene 3 29 56 2.21636 0 279 2.21636 1
gene 2 30 56 1.33757 0 280 1.33757 1
gene 2 31 56 1.77215 0 281 1.77215 1
gene 2 32 56 -1.99794 0 282 -1.99794 1
gene 2 33 56 1.41578 0 283 1.41578 1
gene 2 34 56 0.509857 0 284 0.509857 1
gene 3 35 56 -1.12059 0 285 -1.12059 1
gene 1 36 56 1.81539 0 286 1.81539 1
gene 1 37 56 -2.03128 0 287 -2.03128 1
gene 1 38 56 -2.35769 0 288 -2.35769 1
gene 2 39 56 1.33317 0 289 1.33317 1
gene 2 40 56 -1.40672 0 290 -1.40672 1
gene 3 41 56 -0.704123 0 291 -0.704123 1
gene 2 42 56 0.528901 0 292 0.528901 1
gene 3 43 56 0.871258 0 293 0.871258 1
gene 1 44 56 -2.47005 0 294 -2.47005 1
gene 3 45 56 1.21509 0 295 1.21509 1
gene 3 46 56 2.22608 0 296 2.22608 1
gene 3 47 56 1.43675 0 297 1.43675 1
gene 1 48 56 -0.115421 0 298 -0.115421 1
gene 3 49 56 2.12957 0 299 2.12957 1
gene 2 50 56 -0.25219 0 300 -0.25219 1
gene 2 1 57 -1.09185 0 301 -1.09185 1
gene 2 2 57 0.151448 0 302 0.151448 1
gene 1 3 57 -0.0891598 0 303 -0.0891598 1
gene 2 4 57 1.72877 0 304 1.72877 1
gene 2 5 57 1.04944 0 305 1.04944 1
gene 1 6 57 -2.71659 0 306 -2.71659 1
gene 2 7 57 -2.38961 0 307 -2.38961 1
gene 3 8 57 -2.48833 0 308 -2.48833 1
gene 1 9 57 1.58811 0 309 1.58811 1
gene 3 10 57 -0.283242 0 310 -0.283242 1
gene 3 11 57 2.81194 0 311 2.81194 1
gene 3 12 57 1.45006 0 312 1.45006 1
gene 3 13 57 1.87349 0 313 1.87349 1
gene 1 14 57 0.375851 0 314 0.375851 1
gene 3 15 57 0.547304 0 315 0.547304 1
gene 3 16 57 -0.19303 0 316 -0.19303 1
gene 1 17 57 -1.20775 0 317 -1.20775 1
gene 1 18 57 -2.82951 0 318 -2.82951 1
gene 3 19 57 -1.15314 0 319 -1.15314 1
gene 2 20 57 1.36676 0 320 1.36676 1
gene 2 21 57 1.45419 0 321 1.45419 1
gene 1 22 57 -0.476485 0 322 -0.476485 1
gene 2 23 57 2.6832 0 323 2.6832 1
gene 3 24 57 -0.907956 0 324 -0.907956 1
gene 2 25 57 1.97267 0 325 1.97267 1
gene 2 26 57 -0.168126 0 326 -0.168126 1
gene 2 27 57 1.39776 0 327 1.39776 1
gene 1 28 57 -1.25069 0 328 -1.25069 1
gene 1 29 57 1.68995 0 329 1.68995 1
gene 2 30 57 2.24847 0 330 2.24847 1
gene 1 31 57 -0.678869 0 331 -0.678869 1
gene 1 32 57 2.32722 0 332 2.32722 1
gene 1 33 57 -1.27699 0 333 -1.27699 1
gene 2 34 57 -1.12535 0 334 -1.12535 1
gene 3 35 57 2.44404 0 335 2.44404 1
gene 2 36 57 -2.44096 0 336 -2.44096 1
gene 3 37 57 1.42605 0 337 1.42605 1
gene 1 38 57 2.48708 0 338 2.48708 1
gene 1 39 57 0.21662 0 339 0.21662 1
gene 1 40 57 -1.9335 0 340 -1.9335 1
gene 1 41 57 1.44714 0 341 1.44714 1
gene 3 42 57 1.57024 0 342 1.57024 1
gene 2 43 57 -2.70244 0 343 -2.70244 1
gene 3 44 57 1.53287 0 344 1.53287 1
gene 3 45 57 1.44971 0 345 1.44971 1
gene 1 46 57 -0.716849 0 346 -0.716849 1
gene 3 47 57 2.28591 0 347 2.28591 1
gene 3 48 57 0.162664 0 348 0.162664 1
gene 2 49 57 -0.806192 0 349 -0.806192 1
gene 3 50 57 -0.0263375 0 350 -0.0263375 1
gene 2 1 58 0.398526 0 351 0.398526 1
gene 3 2 58 -0.126392 0 352 -0.126392 1
gene 2 3 58 1.27161 0 353 1.27161 1
gene 2 4 58 -1.35609 0 354 -1.35609 1
gene 2 5 58 -0.911649 0 355 -0.911649 1
gene 3 6 58 -1.8169 0 356 -1.8169 1
gene 3 7 58 -0.123157 0 357 -0.123157 1
gene 1 8 58 2.07555 0 358 2.07555 1
gene 3 9 58 -0.310053 0 359 -0.310053 1
gene 1 10 58 -1.5884 0 360 -1.5884 1
gene 1 11 58 0.681585 0 361 0.681585 1
gene 3 12 58 -0.155187 0 362 -0.155187 1
gene 1 13 58 -0.0283822 0 363 -0.0283822 1
gene 3 14 58 0.191275 0 364 0.191275 1
gene 2 15 58 -0.399319 0 365 -0.399319 1
gene 1 16 58 1.31977 0 366 1.31977 1
gene 1 17 58 0.193686 0 367 0.193686 1
gene 2 18 58 0.764718 0 368 0.764718 1
gene 2 19 58 -1.27662 0 369 -1.27662 1
gene 3 20 58 2.05722 0 370 2.05722 1
gene 1 21 58 1.30912 0 371 1.30912 1
gene 2 22 58 -0.943831 0 372 -0.943831 1
gene 1 23 58 1.40959 0 373 1.40959 1
gene 3 24 58 1.91737 0 374 1.91737 1
gene 2 25 58 0.571871 0 375 0.571871 1
gene 2 26 58 -0.177236 0 376 -0.177236 1
gene 2 27 58 -1.30645 0 377 -1.30645 1
gene 2 28 58 0.65186 0 378 0.65186 1
gene 1 29 58 0.211646 0 379 0.211646 1
gene 2 30 58 0.268151 0 380 0.268151 1
gene 2 31 58 1.28269 0 381 1.28269 1
gene 1 32 58 -0.247047 0 382 -0.247047 1
gene 2 33 58 -2.08205 0 383 -2.08205 1
gene 3 34 58 0.0231635 0 384 0.0231635 1
gene 2 35 58 0.41026 0 385 0.41026 1
gene 2 36 58 -0.258477 0 386 -0.258477 1
gene 1 37 58 -1.00864 0 387 -1.00864 1
gene 3 38 58 -0.402707 0 388 -0.402707 1
gene 3 39 58 -1.08252 0 389 -1.08252 1
gene 3 40 58 1.58379 0 390 1.58379 1
gene 2 41 58 -1.76479 0 391 -1.76479 1
gene 2 42 58 0.419279 0 392 0.419279 1
gene 1 43 58 -0.0547044 0 393 -0.0547044 1
gene 2 44 58 -0.158452 0 394 -0.158452 1
gene 2 45 58 0.280404 0 395 0.280404 1
gene 1 46 58 -1.53821 0 396 -1.53821 1
gene 2 47 58 0.411847 0 397 0.411847 1
gene 1 48 58 -1.04176 0 398 -1.04176 1
gene 1 49 58 2.5052 0 399 2.5052 1
gene 3 50 58 -1.59487 0 400 -1.59487 1
gene 2 1 59 -0.554353 0 401 -0.554353 1
gene 2 2 59 0.211722 0 402 0.211722 1
gene 2 3 59 -0.857952 0 403 -0.857952 1
gene 2 4 59 -0.213828 0 404 -0.213828 1
gene 1 5 59 -1.58319 0 405 -1.58319 1
gene 3 6 59 -1.31146 0 406 -1.31146 1
gene 3 7 59 -2.03725 0 407 -2.03725 1
gene 1 8 59 -1.77486 0 408 -1.77486 1
gene 3 9 59 -2.44903 0 409 -2.44903 1
gene 2 10 59 1.45738 0 410 1.45738 1
gene 3 11 59 1.36929 0 411 1.36929 1
gene 2 12 59 -1.6711 0 412 -1.6711 1
gene 1 13 59 0.568804 0 413 0.568804 1
gene 2 14 59 -0.0695669 0 414 -0.0695669 1
gene 2 15 59 0.0152135 0 415 0.0152135 1
gene 1 16 59 -1.2637 0 416 -1.2637 1
gene 3 17 59 0.917447 0 417 0.917447 1
gene 3 18 59 0.00283822 0 418 0.00283822 1
gene 3 19 59 -2.11652 0 419 -2.11652 1
gene 2 20 59 -0.338649 0 420 -0.338649 1
gene 1 21 59 0.614185 0 421 0.614185 1
gene 2 22 59 -2.11484 0 422 -2.11484 1
gene 3 23 59 -1.18191 0 423 -1.18191 1
gene 2 24 59 0.067156 0 424 0.067156 1
gene 2 25 59 -0.971816 0 425 -0.971816 1
gene 1 26 59 -0.262154 0 426 -0.262154 1
gene 3 27 59 0.189779 0 427 0.189779 1
gene 1 28 59 -0.216605 0 428 -0.216605 1
gene 1 29 59 2.19939 0 429 2.19939 1
gene 1 30 59 1.80276 0 430 1.80276 1
gene 1 31 59 -0.695547 0 431 -0.695547 1
gene 1 32 59 -0.652532 0 432 -0.652532 1
gene 1 33 59 -0.115696 0 433 -0.115696 1
gene 1 34 59 0.505707 0 434 0.505707 1
gene 3 35 59 -2.11838 0 435 -2.11838 1
gene 3 36 59 2.71511 0 436 2.71511 1
gene 2 37 59 2.58278 0 437 2.58278 1
gene 1 38 59 -1.59096 0 438 -1.59096 1
gene 3 39 59 -1.64731 0 439 -1.64731 1
gene 1 40 59 -0.49765 0 440 -0.49765 1
gene 1 41 59 1.34191 0 441 1.34191 1
gene 2 42 59 -1.12224 0 442 -1.12224 1
gene 2 43 59 -2.18642 0 443 -2.18642 1
gene 3 44 59 -0.383389 0 444 -0.383389 1
gene 1 45 59 0.0652486 0 445 0.0652486 1
gene 1 46 59 -0.577761 0 446 -0.577761 1
gene 2 47 59 -2.97111 0 447 -2.97111 1
gene 3 48 59 -0.508606 0 448 -0.508606 1
gene 3 49 59 -1.23847 0 449 -1.23847 1
gene 3 50 59 -0.124516 0 450 -0.124516 1
gene 2 11 60 -0.213874 0 453 -0.213874 1
genomeend 279

/* Organism #138 Fitness: 5 Error: 0 */
genomestart 138
trait 1 0.569832 0 0 0 0 0 0 0 
trait 2 0.2 0 0 0 0 0 0 0 
trait 3 0.3 0 0 0 0 0 0 0 
node 1 2 1 1
node 2 3 1 1
node 3 1 1 1
node 4 3 1 1
node 5 1 1 1
node 6 2 1 1
node 7 3 1 1
node 8 1 1 1
node 9 3 1 1
node 10 2 1 1
node 11 3 1 1
node 12 1 1 1
node 13 3 1 1
node 14 2 1 1
node 15 3 1 1
node 16 3 1 1
node 17 3 1 1
node 18 1 1 1
node 19 3 1 1
node 20 3 1 1
node 21 2 1 1
node 22 2 1 1
node 23 2 1 1
node 24 2 1 1
node 25 1 1 1
node 26 2 1 1
node 27 2 1 1
node 28 1 1 1
node 29 3 1 1
node 30 1 1 1
node 31 1 1 1
node 32 2 1 1
node 33 1 1 1
node 34 2 1 1
node 35 1 1 1
node 36 2 1 1
node 37 1 1 1
node 38 3 1 1
node 39 1 1 1
node 40 1 1 1
node 41 3 1 1
node 42 2 1 1
node 43 1 1 1
node 44 1 1 1
node 45 1 1 1
node 46 2 1 1
node 47 1 1 1
node 48 2 1 1
node 49 2 1 1
node 50 1 1 3
node 51 2 0 2
node 52 3 0 2
node 53 3 0 2
node 54 2 0 2
node 55 3 0 2
node 56 2 0 2
node 57 2 0 2
node 58 3 0 2
node 59 3 0 2
node 60 2 0 2
gene 3 1 51 -0.726279 0 1 -0.726279 1
gene 2 2 51 -1.05559 0 2 -1.05559 1
gene 3 3 51 1.83113 0 3 1.83113 1
gene 1 4 51 -0.155904 0 4 -0.155904 1
gene 2 5 51 2.56618 0 5 2.56618 1
gene 3 6 51 -1.30154 0 6 -1.30154 1
gene 1 7 51 -2.13289 0 7 -2.13289 1
gene 3 8 51 0.625431 0 8 0.625431 1
gene 3 9 51 -2.74862 0 9 -2.74862 1
gene 1 10 51 0.814524 0 10 0.814524 1
gene 2 11 51 -0.983306 0 11 -0.983306 1
gene 3 12 51 -2.27515 0 12 -2.27515 1
gene 2 13 51 -2.32467 0 13 -2.32467 1
gene 2 14 51 -2.43036 0 14 -2.43036 1
gene 1 15 51 1.30795 0 15 1.30795 1
gene 3 16 51 1.48482 0 16 1.48482 1
gene 2 17 51 1.16367 0 17 1.16367 1
gene 3 18 51 1.58269 0 18 1.58269 1
gene 2 19 51 -1.76634 0 19 -1.76634 1
gene 1 20 51 -0.665563 0 20 -0.665563 1
gene 3 21 51 0.641316 0 21 0.641316 1
gene 2 22 51 -0.115894 0 22 -0.115894 1
gene 3 23 51 1.47406 0 23 1.47406 1
gene 3 24 51 0.717399 0 24 0.717399 1
gene 3 25 51 3.10384 0 25 3.10384 1
gene 2 26 51 -0.12093 0 26 -0.12093 1
gene 3 27 51 -0.00320444 0 27 -0.00320444 1
gene 3 28 51 0.0604877 0 28 0.0604877 1
gene 2 29 51 0.437254 0 29 0.437254 1
gene 1 30 51 0.305216 0 30 0.305216 1
gene 2 31 51 -1.25675 0 31 -1.25675 1
gene 2 32 51 -2.57926 0 32 -2.57926 1
gene 3 33 51 -2.35968 0 33 -2.35968 1
gene 1 34 51 0.212104 0 34 0.212104 1
gene 2 35 51 -1.11754 0 35 -1.11754 1
gene 2 36 51 1.77776 0 36 1.77776 1
gene 2 37 51 0.921461 0 37 0.921461 1
gene 1 38 51 -2.56406 0 38 -2.56406 1
gene 3 39 51 1.67585 0 39 1.67585 1
gene 3 40 51 -1.06009 0 40 -1.06009 1
gene 1 41 51 2.53571 0 41 2.53571 1
gene 1 42 51 1.9341 0 42 1.9341 1
gene 1 43 51 -4.56964 0 43 -4.56964 1
gene 1 44 51 2.37962 0 44 2.37962 1
gene 3 45 51 1.89038 0 45 1.89038 1
gene 3 46 51 -0.0484329 0 46 -0.0484329 1
gene 2 47 51 -0.651296 0 47 -0.651296 1
gene 3 48 51 0.407651 0 48 0.407651 1
gene 1 49 51 -0.938368 0 49 -0.938368 1
gene 2 50 51 -0.213324 0 50 -0.213324 1
gene 3 1 52 -1.1046 0 51 -1.1046 1
gene 2 2 52 2.67283 0 52 2.67283 1
gene 2 3 52 1.97218 0 53 1.97218 1
gene 3 4 52 -0.0875271 0 54 -0.0875271 1
gene 2 5 52 -0.675527 0 55 -0.675527 1
gene 1 6 52 -1.02586 0 56 -1.02586 1
gene 3 7 52 0.176916 0 57 0.176916 1
gene 3 8 52 -1.474 0 58 -1.474 1
gene 1 9 52 -1.95253 0 59 -1.95253 1
gene 2 10 52 3.92341 0 60 3.92341 1
gene 2 11 52 0.873165 0 61 0.873165 1
gene 3 12 52 -2.44705 0 62 -2.44705 1
gene 3 13 52 -3.04939 0 63 -3.04939 1
gene 2 14 52 0.445235 0 64 0.445235 1
gene 2 15 52 -1.67009 0 65 -1.67009 1
gene 1 16 52 2.04604 0 66 2.04604 1
gene 1 17 52 0.0666524 0 67 0.0666524 1
gene 3 18 52 0.64275 0 68 0.64275 1
gene 2 19 52 1.6193 0 69 1.6193 1
gene 1 20 52 -0.200659 0 70 -0.200659 1
gene 3 21 52 -3.25967 0 71 -3.25967 1
gene 1 22 52 1.4917 0 72 1.4917 1
gene 1 23 52 2.13071 0 73 2.13071 1
gene 2 24 52 1.9039 0 74 1.9039 1
gene 1 25 52 1.50119 0 75 1.50119 1
gene 1 26 52 -3.6483 0 76 -3.6483 1
gene 2 27 52 1.83697 0 77 1.83697 1
gene 3 28 52 -1.0692 0 78 -1.0692 1
gene 3 29 52 -0.919996 0 79 -0.919996 1
gene 1 30 52 -2.23846 0 80 -2.23846 1
gene 1 31 52 1.84019 0 81 1.84019 1
gene 3 32 52 2.43318 0 82 2.43318 1
gene 1 33 52 1.22074 0 83 1.22074 1
gene 2 34 52 1.14948 0 84 1.14948 1
gene 3 35 52 -3.52199 0 85 -3.52199 1
gene 3 36 52 3.9248 0 86 3.9248 1
gene 2 37 52 -2.56623 0 87 -2.56623 1
gene 2 38 52 1.00798 0 88 1.00798 1
gene 1 39 52 -1.22604 0 89 -1.22604 1
gene 1 40 52 3.95125 0 90 3.95125 1
gene 2 41 52 1.52699 0 91 1.52699 1
gene 2 42 52 -1.83345 0 92 -1.83345 1
gene 1 43 52 -1.45445 0 93 -1.45445 1
gene 2 44 52 0.341823 0 94 0.341823 1
gene 2 45 52 0.46971 0 95 0.46971 1
gene 3 46 52 -0.492126 0 96 -0.492126 1
gene 3 47 52 2.80645 0 97 2.80645 1
gene 3 48 52 3.6491 0 98 3.6491 1
gene 1 49 52 -1.22077 0 99 -1.22077 1
gene 3 50 52 -4.08274 0 100 -4.08274 1
gene 3 1 53 0.293435 0 101 0.293435 1
gene 1 2 53 0.239723 0 102 0.239723 1
gene 3 3 53 -2.76092 0 103 -2.76092 1
gene 2 4 53 -3.26911 0 104 -3.26911 1
gene 2 5 53 -1.83143 0 105 -1.83143 1
gene 1 6 53 1.87407 0 106 1.87407 1
gene 1 7 53 2.73687 0 107 2.73687 1
gene 3 8 53 -1.11174 0 108 -1.11174 1
gene 1 9 53 -0.231788 0 109 -0.231788 1
gene 3 10 53 0.120396 0 110 0.120396 1
gene 2 11 53 0.98938 0 111 0.98938 1
gene 2 12 53 0.228263 0 112 0.228263 1
gene 2 13 53 2.97736 0 113 2.97736 1
gene 2 14 53 0.971389 0 114 0.971389 1
gene 2 15 53 0.276193 0 115 0.276193 1
gene 2 16 53 1.92224 0 116 1.92224 1
gene 3 17 53 0.807901 0 117 0.807901 1
gene 2 18 53 2.40481 0 118 2.40481 1
gene 2 19 53 -1.47487 0 119 -1.47487 1
gene 3 20 53 -1.75901 0 120 -1.75901 1
gene 3 21 53 1.05322 0 121 1.05322 1
gene 1 22 53 -0.805048 0 122 -0.805048 1
gene 2 23 53 -1.89842 0 123 -1.89842 1
gene 2 24 53 2.15513 0 124 2.15513 1
gene 1 25 53 -2.42264 0 125 -2.42264 1
gene 3 26 53 -1.52643 0 126 -1.52643 1
gene 3 27 53 1.83645 0 127 1.83645 1
gene 1 28 53 3.08481 0 128 3.08481 1
gene 2 29 53 -2.88585 0 129 -2.88585 1
gene 1 30 53 -3.08556 0 130 -3.08556 1
gene 1 31 53 -0.213401 0 131 -0.213401 1
gene 3 32 53 1.31338 0 132 1.31338 1
gene 1 33 53 -0.575243 0 133 -0.575243 1
gene 3 34 53 0.888119 0 134 0.888119 1
gene 3 35 53 -1.25509 0 135 -1.25509 1
gene 3 36 53 2.82192 0 136 2.82192 1
gene 2 37 53 -0.0435194 0 137 -0.0435194 1
gene 1 38 53 1.27352 0 138 1.27352 1
gene 3 39 53 -1.90435 0 139 -1.90435 1
gene 1 40 53 3.71723 0 140 3.71723 1
gene 2 41 53 -1.31979 0 141 -1.31979 1
gene 3 42 53 1.69424 0 142 1.69424 1
gene 3 43 53 -1.1043 0 143 -1.1043 1
gene 3 44 53 0.434584 0 144 0.434584 1
gene 3 45 53 1.66234 0 145 1.66234 1
gene 1 46 53 3.26461 0 146 3.26461 1
gene 3 47 53 -2.48415 0 147 -2.48415 1
gene 3 48 53 -2.98624 0 148 -2.98624 1
gene 3 49 53 2.20888 0 149 2.20888 1
gene 2 50 53 -1.6968 0 150 -1.6968 1
gene 2 1 54 0.887082 0 151 0.887082 1
gene 3 2 54 -0.750221 0 152 -0.750221 1
gene 3 3 54 0.0659352 0 153 0.0659352 1
gene 1 4 54 2.19089 0 154 2.19089 1
gene 3 5 54 -0.316156 0 155 -0.316156 1
gene 1 6 54 -1.28069 0 156 -1.28069 1
gene 3 7 54 -0.795923 0 157 -0.795923 1
gene 1 8 54 -1.43414 0 158 -1.43414 1
gene 3 9 54 0.407727 0 159 0.407727 1
gene 3 10 54 2.37518 0 160 2.37518 1
gene 1 11 54 1.80273 0 161 1.80273 1
gene 3 12 54 -0.824061 0 162 -0.824061 1
gene 3 13 54 1.95238 0 163 1.95238 1
gene 1 14 54 1.56606 0 164 1.56606 1
gene 2 15 54 0.267129 0 165 0.267129 1
gene 1 16 54 0.679098 0 166 0.679098 1
gene 2 17 54 -1.39634 0 167 -1.39634 1
gene 3 18 54 0.198721 0 168 0.198721 1
gene 2 19 54 2.65168 0 169 2.65168 1
gene 2 20 54 -1.75387 0 170 -1.75387 1
gene 2 21 54 -0.876782 0 171 -0.876782 1
gene 3 22 54 -2.04437 0 172 -2.04437 1
gene 3 23 54 1.10814 0 173 1.10814 1
gene 2 24 54 0.490738 0 174 0.490738 1
gene 3 25 54 0.533006 0 175 0.533006 1
gene 1 26 54 -3.7501 0 176 -3.7501 1
gene 2 27 54 -0.364391 0 177 -0.364391 1
gene 2 28 54 1.99469 0 178 1.99469 1
gene 3 29 54 2.61423 0 179 2.61423 1
gene 2 30 54 0.317682 0 180 0.317682 1
gene 2 31 54 0.910779 0 181 0.910779 1
gene 3 32 54 1.54396 0 182 1.54396 1
gene 1 33 54 -1.36869 0 183 -1.36869 1
gene 2 34 54 -1.00203 0 184 -1.00203 1
gene 3 35 54 3.58245 0 185 3.58245 1
gene 1 36 54 1.43771 0 186 1.43771 1
gene 1 37 54 -1.06429 0 187 -1.06429 1
gene 1 38 54 1.01854 0 188 1.01854 1
gene 1 39 54 0.698325 0 189 0.698325 1
gene 2 40 54 1.21699 0 190 1.21699 1
gene 3 41 54 1.92413 0 191 1.92413 1
gene 2 42 54 -2.26562 0 192 -2.26562 1
gene 3 43 54 -2.72144 0 193 -2.72144 1
gene 3 44 54 2.5773 0 194 2.5773 1
gene 3 45 54 -2.79077 0 195 -2.79077 1
gene 2 46 54 2.19988 0 196 2.19988 1
gene 3 47 54 -1.38922 0 197 -1.38922 1
gene 2 48 54 3.68212 0 198 3.68212 1
gene 1 49 54 2.97116 0 199 2.97116 1
gene 2 50 54 -1.2103 0 200 -1.2103 1
gene 2 1 55 -0.91052 0 201 -0.91052 1
gene 2 2 55 0.0731986 0 202 0.0731986 1
gene 3 3 55 2.13172 0 203 2.13172 1
gene 3 4 55 -1.5011 0 204 -1.5011 1
gene 1 5 55 0.494568 0 205 0.494568 1
gene 2 6 55 0.352 0 206 0.352 1
gene 1 7 55 0.720679 0 207 0.720679 1
gene 3 8 55 -3.37329 0 208 -3.37329 1
gene 3 9 55 1.41906 0 209 1.41906 1
gene 1 10 55 0.422819 0 210 0.422819 1
gene 3 11 55 0.137333 0 211 0.137333 1
gene 3 12 55 1.04804 0 212 1.04804 1
gene 3 13 55 -1.99434 0 213 -1.99434 1
gene 3 14 55 -0.109531 0 214 -0.109531 1
gene 1 15 55 1.40294 0 215 1.40294 1
gene 2 16 55 -0.208274 0 216 -0.208274 1
gene 1 17 55 0.424543 0 217 0.424543 1
gene 3 18 55 -3.25669 0 218 -3.25669 1
gene 2 19 55 3.5213 0 219 3.5213 1
gene 3 20 55 -0.67745 0 220 -0.67745 1
gene 1 21 55 0.193106 0 221 0.193106 1
gene 3 22 55 0.537278 0 222 0.537278 1
gene 1 23 55 -0.181112 0 223 -0.181112 1
gene 1 24 55 2.76499 0 224 2.76499 1
gene 1 25 55 1.50195 0 225 1.50195 1
gene 1 26 55 4.08902 0 226 4.08902 1
gene 3 27 55 -1.25538 0 227 -1.25538 1
gene 3 28 55 -1.25732 0 228 -1.25732 1
gene 1 29 55 3.71468 0 229 3.71468 1
gene 1 30 55 2.684 0 230 2.684 1
gene 1 31 55 0.8699 0 231 0.8699 1
gene 2 32 55 -4.09706 0 232 -4.09706 1
gene 2 33 55 -0.787606 0 233 -0.787606 1
gene 2 34 55 -1.56922 0 234 -1.56922 1
gene 1 35 55 1.2253 0 235 1.2253 1
gene 1 36 55 3.91137 0 236 3.91137 1
gene 1 37 55 -3.23849 0 237 -3.23849 1
gene 1 38 55 0.256325 0 238 0.256325 1
gene 3 39 55 -0.601444 0 239 -0.601444 1
gene 3 40 55 -0.577883 0 240 -0.577883 1
gene 2 41 55 0.714896 0 241 0.714896 1
gene 1 42 55 -0.555437 0 242 -0.555437 1
gene 3 43 55 -0.534028 0 243 -0.534028 1
gene 1 44 55 -3.96786 0 244 -3.96786 1
gene 3 45 55 -2.33836 0 245 -2.33836 1
gene 2 46 55 -0.516617 0 246 -0.516617 1
gene 3 47 55 -3.71934 0 247 -3.71934 1
gene 1 48 55 -1.82891 0 248 -1.82891 1
gene 2 49 55 1.67739 0 249 1.67739 1
gene 2 50 55 1.26344 0 250 1.26344 1
gene 3 1 56 -0.533204 0 251 -0.533204 1
gene 1 2 56 1.10369 0 252 1.10369 1
gene 1 3 56 0.414594 0 253 0.414594 1
gene 3 4 56 1.01135 0 254 1.01135 1
gene 3 5 56 -0.504379 0 255 -0.504379 1
gene 3 6 56 -0.421537 0 256 -0.421537 1
gene 2 7 56 1.27175 0 257 1.27175 1
gene 2 8 56 -1.53232 0 258 -1.53232 1
gene 1 9 56 4.02138 0 259 4.02138 1
gene 2 10 56 -1.76844 0 260 -1.76844 1
gene 2 11 56 3.42189 0 261 3.42189 1
gene 3 12 56 -0.873257 0 262 -0.873257 1
gene 1 13 56 -3.08068 0 263 -3.08068 1
gene 1 14 56 1.74366 0 264 1.74366 1
gene 1 15 56 2.20389 0 265 2.20389 1
gene 1 16 56 -0.260918 0 266 -0.260918 1
gene 1 17 56 -1.19846 0 267 -1.19846 1
gene 1 18 56 1.5054 0 268 1.5054 1
gene 1 19 56 -1.46956 0 269 -1.46956 1
gene 3 20 56 0.174337 0 270 0.174337 1
gene 3 21 56 2.00153 0 271 2.00153 1
gene 3 22 56 -1.82263 0 272 -1.82263 1
gene 3 23 56 -0.0123142 0 273 -0.0123142 1
gene 3 24 56 1.63558 0 274 1.63558 1
gene 1 25 56 -1.65203 0 275 -1.65203 1
gene 1 26 56 2.06021 0 276 2.06021 1
gene 3 27 56 2.62551 0 277 2.62551 1
gene 2 28 56 -1.9194 0 278 -1.9194 1
gene 3 29 56 1.93712 0 279 1.93712 1
gene 2 30 56 4.02144 0 280 4.02144 1
gene 2 31 56 -3.19321 0 281 -3.19321 1
gene 2 32 56 -0.63361 0 282 -0.63361 1
gene 2 33 56 1.69182 0 283 1.69182 1
gene 2 34 56 -1.56975 0 284 -1.56975 1
gene 3 35 56 1.71664 0 285 1.71664 1
gene 1 36 56 -1.73292 0 286 -1.73292 1
gene 1 37 56 -2.31678 0 287 -2.31678 1
gene 1 38 56 -3.10211 0 288 -3.10211 1
gene 2 39 56 4.42279 0 289 4.42279 1
gene 2 40 56 -0.0475326 0 290 -0.0475326 1
gene 3 41 56 0.5524 0 291 0.5524 1
gene 2 42 56 -2.9602 0 292 -2.9602 1
gene 3 43 56 4.11377 0 293 4.11377 1
gene 1 44 56 0.371151 0 294 0.371151 1
gene 3 45 56 0.9447 0 295 0.9447 1
gene 3 46 56 0.760506 0 296 0.760506 1
gene 3 47 56 0.617252 0 297 0.617252 1
gene 1 48 56 0.0377056 0 298 0.0377056 1
gene 3 49 56 -2.65046 0 299 -2.65046 1
gene 2 50 56 -1.28509 0 300 -1.28509 1
gene 2 1 57 2.34896 0 301 2.34896 1
gene 2 2 57 -2.44652 0 302 -2.44652 1
gene 1 3 57 3.11113 0 303 3.11113 1
gene 2 4 57 -0.854549 0 304 -0.854549 1
gene 2 5 57 1.51509 0 305 1.51509 1
gene 1 6 57 2.77857 0 306 2.77857 1
gene 2 7 57 -1.89979 0 307 -1.89979 1
gene 3 8 57 -2.54166 0 308 -2.54166 1
gene 1 9 57 5.2298 0 309 5.2298 1
gene 3 10 57 3.01779 0 310 3.01779 1
gene 3 11 57 -0.795999 0 311 -0.795999 1
gene 3 12 57 0.64803 0 312 0.64803 1
gene 3 13 57 -1.16977 0 313 -1.16977 1
gene 1 14 57 -0.50354 0 314 -0.50354 1
gene 3 15 57 4.06433 0 315 4.06433 1
gene 3 16 57 -2.53281 0 316 -2.53281 1
gene 1 17 57 1.45293 0 317 1.45293 1
gene 1 18 57 2.0797 0 318 2.0797 1
gene 3 19 57 0.512101 0 319 0.512101 1
gene 2 20 57 2.77337 0 320 2.77337 1
gene 2 21 57 -3.15998 0 321 -3.15998 1
gene 1 22 57 -0.165273 0 322 -0.165273 1
gene 2 23 57 1.5904 0 323 1.5904 1
gene 3 24 57 0.840144 0 324 0.840144 1
gene 2 25 57 1.27334 0 325 1.27334 1
gene 2 26 57 -3.02504 0 326 -3.02504 1
gene 2 27 57 -1.0219 0 327 -1.0219 1
gene 1 28 57 3.98709 0 328 3.98709 1
gene 1 29 57 -4.234 0 329 -4.234 1
gene 2 30 57 -3.4669 0 330 -3.4669 1
gene 1 31 57 0.682791 0 331 0.682791 1
gene 1 32 57 0.0354015 0 332 0.0354015 1
gene 1 33 57 1.06836 0 333 1.06836 1
gene 2 34 57 -0.641118 0 334 -0.641118 1
gene 3 35 57 3.97111 0 335 3.97111 1
gene 2 36 57 3.01973 0 336 3.01973 1
gene 3 37 57 -1.77427 0 337 -1.77427 1
gene 1 38 57 0.107471 0 338 0.107471 1
gene 1 39 57 -2.59825 0 339 -2.59825 1
gene 1 40 57 -0.0356304 0 340 -0.0356304 1
gene 1 41 57 -1.87503 0 341 -1.87503 1
gene 3 42 57 -3.13585 0 342 -3.13585 1
gene 2 43 57 -0.55887 0 343 -0.55887 1
gene 3 44 57 -2.15018 0 344 -2.15018 1
gene 3 45 57 -0.755715 0 345 -0.755715 1
gene 1 46 57 3.80226 0 346 3.80226 1
gene 3 47 57 2.05504 0 347 2.05504 1
gene 3 48 57 -1.71735 0 348 -1.71735 1
gene 2 49 57 -3.28101 0 349 -3.28101 1
gene 3 50 57 -4.71879 0 350 -4.71879 1
gene 2 1 58 -0.687963 0 351 -0.687963 1
gene 3 2 58 0.71955 0 352 0.71955 1
gene 2 3 58 -2.64177 0 353 -2.64177 1
gene 2 4 58 -3.85685 0 354 -3.85685 1
gene 2 5 58 1.15331 0 355 1.15331 1
gene 3 6 58 0.698737 0 356 0.698737 1
gene 3 7 58 0.00669881 0 357 0.00669881 1
gene 1 8 58 -0.721168 0 358 -0.721168 1
gene 3 9 58 -2.17794 0 359 -2.17794 1
gene 1 10 58 1.83554 0 360 1.83554 1
gene 1 11 58 -0.746941 0 361 -0.746941 1
gene 3 12 58 1.65616 0 362 1.65616 1
gene 1 13 58 -1.28452 0 363 -1.28452 1
gene 3 14 58 0.65714 0 364 0.65714 1
gene 2 15 58 2.11342 0 365 2.11342 1
gene 1 16 58 -1.71575 0 366 -1.71575 1
gene 1 17 58 0.193686 0 367 0.193686 1
gene 2 18 58 0.372921 0 368 0.372921 1
gene 2 19 58 0.233009 0 369 0.233009 1
gene 3 20 58 1.21967 0 370 1.21967 1
gene 1 21 58 1.24686 0 371 1.24686 1
gene 2 22 58 2.24383 0 372 2.24383 1
gene 1 23 58 -2.02086 0 373 -2.02086 1
gene 3 24 58 -0.473754 0 374 -0.473754 1
gene 2 25 58 1.84576 0 375 1.84576 1
gene 2 26 58 2.9667 0 376 2.9667 1
gene 2 27 58 -4.86567 0 377 -4.86567 1
gene 2 28 58 1.3637 0 378 1.3637 1
gene 1 29 58 -1.59377 0 379 -1.59377 1
gene 2 30 58 1.1731 0 380 1.1731 1
gene 2 31 58 0.108356 0 381 0.108356 1
gene 1 32 58 -0.16541 0 382 -0.16541 1
gene 2 33 58 -0.00259407 0 383 -0.00259407 1
gene 3 34 58 2.06076 0 384 2.06076 1
gene 2 35 58 -1.53613 0 385 -1.53613 1
gene 2 36 58 -0.31547 0 386 -0.31547 1
gene 1 37 58 1.45111 0 387 1.45111 1
gene 3 38 58 1.90611 0 388 1.90611 1
gene 3 39 58 0.856807 0 389 0.856807 1
gene 3 40 58 0.201041 0 390 0.201041 1
gene 2 41 58 -2.14635 0 391 -2.14635 1
gene 2 42 58 -1.17592 0 392 -1.17592 1
gene 1 43 58 0.0653096 0 393 0.0653096 1
gene 2 44 58 0.856273 0 394 0.856273 1
gene 2 45 58 -0.128178 0 395 -0.128178 1
gene 1 46 58 0.60387 0 396 0.60387 1
gene 2 47 58 0.989792 0 397 0.989792 1
gene 1 48 58 3.98997 0 398 3.98997 1
gene 1 49 58 -0.257027 0 399 -0.257027 1
gene 3 50 58 0.81106 0 400 0.81106 1
gene 2 1 59 -0.592135 0 401 -0.592135 1
gene 2 2 59 -0.456709 0 402 -0.456709 1
gene 2 3 59 -1.79408 0 403 -1.79408 1
gene 2 4 59 -1.64957 0 404 -1.64957 1
gene 1 5 59 -0.775597 0 405 -0.775597 1
gene 3 6 59 -2.30131 0 406 -2.30131 1
gene 3 7 59 -2.17481 0 407 -2.17481 1
gene 1 8 59 1.38746 0 408 1.38746 1
gene 3 9 59 -0.0146489 0 409 -0.0146489 1
gene 2 10 59 -2.40191 0 410 -2.40191 1
gene 3 11 59 -3.87524 0 411 -3.87524 1
gene 2 12 59 -2.27287 0 412 -2.27287 1
gene 1 13 59 0.822703 0 413 0.822703 1
gene 2 14 59 -0.269173 0 414 -0.269173 1
gene 2 15 59 -1.09314 0 415 -1.09314 1
gene 1 16 59 -2.37419 0 416 -2.37419 1
gene 3 17 59 -1.00346 0 417 -1.00346 1
gene 3 18 59 0.694067 0 418 0.694067 1
gene 3 19 59 -1.73054 0 419 -1.73054 1
gene 2 20 59 0.307627 0 420 0.307627 1
gene 1 21 59 -0.899838 0 421 -0.899838 1
gene 2 22 59 -2.05168 0 422 -2.05168 1
gene 3 23 59 1.23196 0 423 1.23196 1
gene 2 24 59 -0.764931 0 424 -0.764931 1
gene 2 25 59 0.975829 0 425 0.975829 1
gene 1 26 59 -0.274499 0 426 -0.274499 1
gene 3 27 59 -0.830302 0 427 -0.830302 1
gene 1 28 59 -0.677664 0 428 -0.677664 1
gene 1 29 59 -0.167013 0 429 -0.167013 1
gene 1 30 59 -0.937986 0 430 -0.937986 1
gene 1 31 59 -0.628712 0 431 -0.628712 1
gene 1 32 59 1.22875 0 432 1.22875 1
gene 1 33 59 0.778298 0 433 0.778298 1
gene 1 34 59 1.49298 0 434 1.49298 1
gene 3 35 59 2.44621 0 435 2.44621 1
gene 3 36 59 1.36883 0 436 1.36883 1
gene 2 37 59 1.6483 0 437 1.6483 1
gene 1 38 59 1.09378 0 438 1.09378 1
gene 3 39 59 1.26589 0 439 1.26589 1
gene 1 40 59 -2.62253 0 440 -2.62253 1
gene 1 41 59 1.37892 0 441 1.37892 1
gene 2 42 59 -0.319758 0 442 -0.319758 1
gene 2 43 59 -2.37205 0 443 -2.37205 1
gene 3 44 59 0.434812 0 444 0.434812 1
gene 1 45 59 1.53128 0 445 1.53128 1
gene 1 46 59 -1.73884 0 446 -1.73884 1
gene 2 47 59 -1.1809 0 447 -1.1809 1
gene 3 48 59 -2.61393 0 448 -2.61393 1
gene 3 49 59 0.703452 0 449 0.703452 1
gene 3 50 59 -0.929212 0 450 -0.929212 1
gene 2 11 60 -0.282678 0 453 -0.282678 1
genomeend 138

/* Organism #144 Fitness: 1 Error: 0 */
genomestart 144
trait 1 0.1 0 0 0 0 0 0 0 
trait 2 0.2 0 0 0 0 0 0 0 
trait 3 0.3 0 0 0 0 0 0 0 
node 1 3 1 1
node 2 3 1 1
node 3 2 1 1
node 4 2 1 1
node 5 1 1 1
node 6 1 1 1
node 7 1 1 1
node 8 2 1 1
node 9 1 1 1
node 10 2 1 1
node 11 3 1 1
node 12 2 1 1
node 13 3 1 1
node 14 2 1 1
node 15 2 1 1
node 16 1 1 1
node 17 1 1 1
node 18 3 1 1
node 19 1 1 1
node 20 3 1 1
node 21 1 1 1
node 22 1 1 1
node 23 2 1 1
node 24 3 1 1
node 25 2 1 1
node 26 2 1 1
node 27 2 1 1
node 28 1 1 1
node 29 3 1 1
node 30 2 1 1
node 31 1 1 1
node 32 3 1 1
node 33 2 1 1
node 34 3 1 1
node 35 2 1 1
node 36 1 1 1
node 37 2 1 1
node 38 1 1 1
node 39 3 1 1
node 40 3 1 1
node 41 1 1 1
node 42 3 1 1
node 43 2 1 1
node 44 2 1 1
node 45 2 1 1
node 46 2 1 1
node 47 1 1 1
node 48 1 1 1
node 49 1 1 1
node 50 2 1 3
node 51 3 0 2
node 52 3 0 2
node 53 1 0 2
node 54 3 0 2
node 55 2 0 2
node 56 2 0 2
node 57 2 0 2
node 58 3 0 2
node 59 3 0 2
node 60 2 0 2
gene 3 1 51 -1.30979 0 1 -1.30979 1
gene 3 2 51 -0.830348 0 2 -0.830348 1
gene 3 3 51 0.694525 0 3 0.694525 1
gene 1 4 51 -1.36352 0 4 -1.36352 1
gene 2 5 51 1.05559 0 5 1.05559 1
gene 2 6 51 -2.12401 0 6 -2.12401 1
gene 1 7 51 -2.24775 0 7 -2.24775 1
gene 2 8 51 0.457137 0 8 0.457137 1
gene 2 9 51 -3.30183 0 9 -3.30183 1
gene 2 10 51 1.33888 0 10 1.33888 1
gene 1 11 51 1.61664 0 11 1.61664 1
gene 3 12 51 -1.05135 0 12 -1.05135 1
gene 1 13 51 -1.65316 0 13 -1.65316 1
gene 2 14 51 0.131581 0 14 0.131581 1
gene 3 15 51 0.0807215 0 15 0.0807215 1
gene 2 16 51 -1.12183 0 16 -1.12183 1
gene 2 17 51 2.91784 0 17 2.91784 1
gene 1 18 51 0.536866 0 18 0.536866 1
gene 2 19 51 2.08422 0 19 2.08422 1
gene 3 20 51 1.68294 0 20 1.68294 1
gene 1 21 51 1.44778 0 21 1.44778 1
gene 2 22 51 -0.723991 0 22 -0.723991 1
gene 3 23 51 1.62626 0 23 1.62626 1
gene 1 24 51 0.494446 0 24 0.494446 1
gene 3 25 51 1.12293 0 25 1.12293 1
gene 2 26 51 -1.67225 0 26 -1.67225 1
gene 2 27 51 -0.341884 0 27 -0.341884 1
gene 3 28 51 -0.627354 0 28 -0.627354 1
gene 3 29 51 -1.24203 0 29 -1.24203 1
gene 1 30 51 1.19317 0 30 1.19317 1
gene 1 31 51 1.98819 0 31 1.98819 1
gene 1 32 51 1.81104 0 32 1.81104 1
gene 2 33 51 -1.51036 0 33 -1.51036 1
gene 1 34 51 -2.47862 0 34 -2.47862 1
gene 3 35 51 -0.411313 0 35 -0.411313 1
gene 2 36 51 -0.149571 0 36 -0.149571 1
gene 1 37 51 0.967742 0 37 0.967742 1
gene 2 38 51 0.796258 0 38 0.796258 1
gene 1 39 51 4.35453 0 39 4.35453 1
gene 2 40 51 2.43233 0 40 2.43233 1
gene 1 41 51 0.657872 0 41 0.657872 1
gene 1 42 51 1.83607 0 42 1.83607 1
gene 2 43 51 -0.5347 0 43 -0.5347 1
gene 3 44 51 -0.403699 0 44 -0.403699 1
gene 1 45 51 -1.54698 0 45 -1.54698 1
gene 2 46 51 -1.25713 0 46 -1.25713 1
gene 2 47 51 0.464644 0 47 0.464644 1
gene 3 48 51 2.07404 0 48 2.07404 1
gene 3 49 51 1.55327 0 49 1.55327 1
gene 2 50 51 3.15105 0 50 3.15105 1
gene 2 1 52 -1.87416 0 51 -1.87416 1
gene 1 2 52 1.89821 0 52 1.89821 1
gene 3 3 52 0.101505 0 53 0.101505 1
gene 2 4 52 -1.78426 0 54 -1.78426 1
gene 1 5 52 -0.576189 0 55 -0.576189 1
gene 2 6 52 -0.278375 0 56 -0.278375 1
gene 1 7 52 0.710242 0 57 0.710242 1
gene 2 8 52 0.124454 0 58 0.124454 1
gene 1 9 52 -3.04337 0 59 -3.04337 1
gene 3 10 52 -1.10848 0 60 -1.10848 1
gene 3 11 52 0.160054 0 61 0.160054 1
gene 1 12 52 1.5996 0 62 1.5996 1
gene 2 13 52 0.0653859 0 63 0.0653859 1
gene 2 14 52 3.34922 0 64 3.34922 1
gene 1 15 52 -0.598651 0 65 -0.598651 1
gene 1 16 52 1.86702 0 66 1.86702 1
gene 1 17 52 -3.31919 0 67 -3.31919 1
gene 1 18 52 0.383633 0 68 0.383633 1
gene 2 19 52 -1.93048 0 69 -1.93048 1
gene 1 20 52 3.34133 0 70 3.34133 1
gene 2 21 52 -1.62972 0 71 -1.62972 1
gene 3 22 52 -0.298425 0 72 -0.298425 1
gene 2 23 52 2.20084 0 73 2.20084 1
gene 3 24 52 3.92108 0 74 3.92108 1
gene 3 25 52 -1.05354 0 75 -1.05354 1
gene 2 26 52 0.921613 0 76 0.921613 1
gene 3 27 52 -0.719642 0 77 -0.719642 1
gene 3 28 52 -1.63619 0 78 -1.63619 1
gene 2 29 52 1.48505 0 79 1.48505 1
gene 1 30 52 -1.6984 0 80 -1.6984 1
gene 2 31 52 -1.33297 0 81 -1.33297 1
gene 3 32 52 1.44598 0 82 1.44598 1
gene 1 33 52 -0.0505997 0 83 -0.0505997 1
gene 1 34 52 2.20504 0 84 2.20504 1
gene 1 35 52 -2.71023 0 85 -2.71023 1
gene 1 36 52 -0.290475 0 86 -0.290475 1
gene 2 37 52 -1.70798 0 87 -1.70798 1
gene 3 38 52 0.448195 0 88 0.448195 1
gene 2 39 52 0.383389 0 89 0.383389 1
gene 3 40 52 -2.1576 0 90 -2.1576 1
gene 2 41 52 2.37252 0 91 2.37252 1
gene 1 42 52 1.06127 0 92 1.06127 1
gene 1 43 52 0.240181 0 93 0.240181 1
gene 2 44 52 0.211753 0 94 0.211753 1
gene 3 45 52 0.143742 0 95 0.143742 1
gene 3 46 52 2.19822 0 96 2.19822 1
gene 3 47 52 -3.16385 0 97 -3.16385 1
gene 1 48 52 3.39051 0 98 3.39051 1
gene 2 49 52 1.81867 0 99 1.81867 1
gene 3 50 52 0.708899 0 100 0.708899 1
gene 3 1 53 0.360866 0 101 0.360866 1
gene 1 2 53 -0.869472 0 102 -0.869472 1
gene 3 3 53 1.35804 0 103 1.35804 1
gene 2 4 53 -2.27203 0 104 -2.27203 1
gene 1 5 53 1.6035 0 105 1.6035 1
gene 2 6 53 2.24865 0 106 2.24865 1
gene 3 7 53 -0.631397 0 107 -0.631397 1
gene 3 8 53 -0.373119 0 108 -0.373119 1
gene 2 9 53 0.711966 0 109 0.711966 1
gene 3 10 53 -1.75002 0 110 -1.75002 1
gene 1 11 53 -0.912961 0 111 -0.912961 1
gene 1 12 53 -0.295572 0 112 -0.295572 1
gene 2 13 53 -1.47824 0 113 -1.47824 1
gene 3 14 53 -1.09058 0 114 -1.09058 1
gene 1 15 53 0.672842 0 115 0.672842 1
gene 1 16 53 -2.32635 0 116 -2.32635 1
gene 1 17 53 -2.0781 0 117 -2.0781 1
gene 3 18 53 -1.03909 0 118 -1.03909 1
gene 1 19 53 -1.42972 0 119 -1.42972 1
gene 1 20 53 1.57277 0 120 1.57277 1
gene 1 21 53 0.350505 0 121 0.350505 1
gene 2 22 53 0.826121 0 122 0.826121 1
gene 1 23 53 -2.88313 0 123 -2.88313 1
gene 2 24 53 -1.02257 0 124 -1.02257 1
gene 3 25 53 0.214896 0 125 0.214896 1
gene 2 26 53 1.5041 0 126 1.5041 1
gene 1 27 53 2.25619 0 127 2.25619 1
gene 3 28 53 -0.436079 0 128 -0.436079 1
gene 2 29 53 2.17646 0 129 2.17646 1
gene 3 30 53 -4.21758 0 130 -4.21758 1
gene 3 31 53 0.785394 0 131 0.785394 1
gene 2 32 53 3.97124 0 132 3.97124 1
gene 1 33 53 4.51448 0 133 4.51448 1
gene 3 34 53 2.22451 0 134 2.22451 1
gene 2 35 53 1.36052 0 135 1.36052 1
gene 1 36 53 -1.61618 0 136 -1.61618 1
gene 3 37 53 -2.54343 0 137 -2.54343 1
gene 2 38 53 0.80224 0 138 0.80224 1
gene 1 39 53 0.638142 0 139 0.638142 1
gene 1 40 53 1.96516 0 140 1.96516 1
gene 2 41 53 -1.61512 0 141 -1.61512 1
gene 2 42 53 0.0506607 0 142 0.0506607 1
gene 3 43 53 0.537675 0 143 0.537675 1
gene 3 44 53 1.4917 0 144 1.4917 1
gene 2 45 53 -0.153127 0 145 -0.153127 1
gene 2 46 53 2.63053 0 146 2.63053 1
gene 2 47 53 0.677221 0 147 0.677221 1
gene 2 48 53 2.33085 0 148 2.33085 1
gene 3 49 53 0.35165 0 149 0.35165 1
gene 2 50 53 2.39024 0 150 2.39024 1
gene 3 1 54 -1.28217 0 151 -1.28217 1
gene 3 2 54 -1.10257 0 152 -1.10257 1
gene 2 3 54 2.70103 0 153 2.70103 1
gene 3 4 54 -0.805475 0 154 -0.805475 1
gene 1 5 54 1.34693 0 155 1.34693 1
gene 3 6 54 0.264031 0 156 0.264031 1
gene 2 7 54 -2.33023 0 157 -2.33023 1
gene 3 8 54 1.78684 0 158 1.78684 1
gene 1 9 54 1.82096 0 159 1.82096 1
gene 1 10 54 0.442961 0 160 0.442961 1
gene 1 11 54 1.878 0 161 1.878 1
gene 1 12 54 -0.70687 0 162 -0.70687 1
gene 2 13 54 0.344707 0 163 0.344707 1
gene 2 14 54 1.81562 0 164 1.81562 1
gene 1 15 54 -1.1372 0 165 -1.1372 1
gene 2 16 54 0.0814234 0 166 0.0814234 1
gene 3 17 54 0.604999 0 167 0.604999 1
gene 3 18 54 -1.8338 0 168 -1.8338 1
gene 3 19 54 2.19625 0 169 2.19625 1
gene 2 20 54 1.23269 0 170 1.23269 1
gene 2 21 54 0.615696 0 171 0.615696 1
gene 2 22 54 1.97905 0 172 1.97905 1
gene 1 23 54 0.767464 0 173 0.767464 1
gene 2 24 54 -3.28532 0 174 -3.28532 1
gene 1 25 54 1.60953 0 175 1.60953 1
gene 1 26 54 -1.82402 0 176 -1.82402 1
gene 1 27 54 -2.41678 0 177 -2.41678 1
gene 3 28 54 3.94086 0 178 3.94086 1
gene 1 29 54 -1.30598 0 179 -1.30598 1
gene 2 30 54 0.778191 0 180 0.778191 1
gene 1 31 54 0.802866 0 181 0.802866 1
gene 3 32 54 -2.84692 0 182 -2.84692 1
gene 3 33 54 0.69277 0 183 0.69277 1
gene 2 34 54 1.1979 0 184 1.1979 1
gene 1 35 54 -0.0971709 0 185 -0.0971709 1
gene 2 36 54 3.02536 0 186 3.02536 1
gene 2 37 54 0.41084 0 187 0.41084 1
gene 2 38 54 0.175954 0 188 0.175954 1
gene 1 39 54 2.24044 0 189 2.24044 1
gene 3 40 54 2.39547 0 190 2.39547 1
gene 1 41 54 -1.74239 0 191 -1.74239 1
gene 2 42 54 -2.89987 0 192 -2.89987 1
gene 1 43 54 -0.292138 0 193 -0.292138 1
gene 1 44 54 -1.66634 0 194 -1.66634 1
gene 3 45 54 -0.24807 0 195 -0.24807 1
gene 1 46 54 -1.52922 0 196 -1.52922 1
gene 1 47 54 -2.98135 0 197 -2.98135 1
gene 3 48 54 -0.0966369 0 198 -0.0966369 1
gene 3 49 54 1.8923 0 199 1.8923 1
gene 1 50 54 -3.20913 0 200 -3.20913 1
gene 2 1 55 1.53217 0 201 1.53217 1
gene 1 2 55 -0.224799 0 202 -0.224799 1
gene 2 3 55 -1.86627 0 203 -1.86627 1
gene 3 4 55 0.234046 0 204 0.234046 1
gene 2 5 55 -0.243843 0 205 -0.243843 1
gene 3 6 55 1.71647 0 206 1.71647 1
gene 1 7 55 1.13247 0 207 1.13247 1
gene 1 8 55 0.221381 0 208 0.221381 1
gene 2 9 55 1.23852 0 209 1.23852 1
gene 1 10 55 -1.14383 0 210 -1.14383 1
gene 1 11 55 0.392315 0 211 0.392315 1
gene 3 12 55 0.184408 0 212 0.184408 1
gene 3 13 55 1.05814 0 213 1.05814 1
gene 1 14 55 0.751152 0 214 0.751152 1
gene 3 15 55 0.668737 0 215 0.668737 1
gene 3 16 55 -0.215705 0 216 -0.215705 1
gene 3 17 55 0.137333 0 217 0.137333 1
gene 3 18 55 2.32987 0 218 2.32987 1
gene 1 19 55 1.25416 0 219 1.25416 1
gene 1 20 55 -1.74541 0 220 -1.74541 1
gene 1 21 55 -1.22623 0 221 -1.22623 1
gene 1 22 55 0.478072 0 222 0.478072 1
gene 2 23 55 -1.11936 0 223 -1.11936 1
gene 1 24 55 -1.01012 0 224 -1.01012 1
gene 3 25 55 -1.87555 0 225 -1.87555 1
gene 1 26 55 1.20373 0 226 1.20373 1
gene 1 27 55 4.06851 0 227 4.06851 1
gene 2 28 55 1.73684 0 228 1.73684 1
gene 3 29 55 -2.49318 0 229 -2.49318 1
gene 1 30 55 -1.14322 0 230 -1.14322 1
gene 2 31 55 -0.905148 0 231 -0.905148 1
gene 2 32 55 -1.73003 0 232 -1.73003 1
gene 1 33 55 -0.0159001 0 233 -0.0159001 1
gene 1 34 55 -0.0584735 0 234 -0.0584735 1
gene 3 35 55 1.50926 0 235 1.50926 1
gene 3 36 55 2.28709 0 236 2.28709 1
gene 3 37 55 -1.26873 0 237 -1.26873 1
gene 1 38 55 -0.00474563 0 238 -0.00474563 1
gene 3 39 55 2.55945 0 239 2.55945 1
gene 1 40 55 -1.76182 0 240 -1.76182 1
gene 1 41 55 -1.05519 0 241 -1.05519 1
gene 3 42 55 1.9135 0 242 1.9135 1
gene 3 43 55 0.169927 0 243 0.169927 1
gene 1 44 55 2.05252 0 244 2.05252 1
gene 1 45 55 3.07627 0 245 3.07627 1
gene 1 46 55 -4.13265 0 246 -4.13265 1
gene 2 47 55 0.597278 0 247 0.597278 1
gene 3 48 55 0.352519 0 248 0.352519 1
gene 2 49 55 1.96055 0 249 1.96055 1
gene 1 50 55 -0.645955 0 250 -0.645955 1
gene 3 1 56 -0.445738 0 251 -0.445738 1
gene 2 2 56 1.77943 0 252 1.77943 1
gene 3 3 56 1.38104 0 253 1.38104 1
gene 3 4 56 1.02976 0 254 1.02976 1
gene 1 5 56 -1.09156 0 255 -1.09156 1
gene 2 6 56 1.06798 0 256 1.06798 1
gene 2 7 56 -0.110965 0 257 -0.110965 1
gene 3 8 56 0.16953 0 258 0.16953 1
gene 3 9 56 -1.33343 0 259 -1.33343 1
gene 3 10 56 0.358898 0 260 0.358898 1
gene 3 11 56 -0.63657 0 261 -0.63657 1
gene 3 12 56 -1.61145 0 262 -1.61145 1
gene 2 13 56 -0.218604 0 263 -0.218604 1
gene 1 14 56 0.512268 0 264 0.512268 1
gene 2 15 56 -3.79034 0 265 -3.79034 1
gene 2 16 56 0.786447 0 266 0.786447 1
gene 2 17 56 0.250481 0 267 0.250481 1
gene 3 18 56 -1.94157 0 268 -1.94157 1
gene 3 19 56 -2.29873 0 269 -2.29873 1
gene 1 20 56 -0.457625 0 270 -0.457625 1
gene 1 21 56 -3.19512 0 271 -3.19512 1
gene 2 22 56 -1.54051 0 272 -1.54051 1
gene 1 23 56 -2.59476 0 273 -2.59476 1
gene 2 24 56 -0.500961 0 274 -0.500961 1
gene 1 25 56 -0.771279 0 275 -0.771279 1
gene 3 26 56 -1.45192 0 276 -1.45192 1
gene 3 27 56 -4.47848 0 277 -4.47848 1
gene 3 28 56 -0.33578 0 278 -0.33578 1
gene 2 29 56 1.54497 0 279 1.54497 1
gene 3 30 56 3.0987 0 280 3.0987 1
gene 2 31 56 1.35495 0 281 1.35495 1
gene 3 32 56 -0.244362 0 282 -0.244362 1
gene 1 33 56 -2.65593 0 283 -2.65593 1
gene 1 34 56 0.166509 0 284 0.166509 1
gene 3 35 56 0.560839 0 285 0.560839 1
gene 2 36 56 0.0688498 0 286 0.0688498 1
gene 3 37 56 0.0873592 0 287 0.0873592 1
gene 3 38 56 1.26905 0 288 1.26905 1
gene 1 39 56 -0.619266 0 289 -0.619266 1
gene 1 40 56 0.878567 0 290 0.878567 1
gene 3 41 56 3.40747 0 291 3.40747 1
gene 3 42 56 0.207221 0 292 0.207221 1
gene 2 43 56 -0.277413 0 293 -0.277413 1
gene 2 44 56 1.0577 0 294 1.0577 1
gene 1 45 56 1.82334 0 295 1.82334 1
gene 3 46 56 0.182653 0 296 0.182653 1
gene 3 47 56 -0.237556 0 297 -0.237556 1
gene 2 48 56 -4.46963 0 298 -4.46963 1
gene 3 49 56 -1.51167 0 299 -1.51167 1
gene 2 50 56 -0.534837 0 300 -0.534837 1
gene 1 1 57 -2.02635 0 301 -2.02635 1
gene 1 2 57 -1.8419 0 302 -1.8419 1
gene 2 3 57 -1.95784 0 303 -1.95784 1
gene 1 4 57 -0.728782 0 304 -0.728782 1
gene 3 5 57 1.52049 0 305 1.52049 1
gene 3 6 57 1.90901 0 306 1.90901 1
gene 3 7 57 -1.11983 0 307 -1.11983 1
gene 3 8 57 -0.309198 0 308 -0.309198 1
gene 3 9 57 -1.98172 0 309 -1.98172 1
gene 2 10 57 -1.92553 0 310 -1.92553 1
gene 2 11 57 2.26194 0 311 2.26194 1
gene 1 12 57 0.31663 0 312 0.31663 1
gene 1 13 57 -0.999634 0 313 -0.999634 1
gene 2 14 57 -1.12032 0 314 -1.12032 1
gene 1 15 57 2.48709 0 315 2.48709 1
gene 1 16 57 -1.15828 0 316 -1.15828 1
gene 2 17 57 1.15914 0 317 1.15914 1
gene 2 18 57 -1.94108 0 318 -1.94108 1
gene 3 19 57 0.764031 0 319 0.764031 1
gene 2 20 57 -1.55663 0 320 -1.55663 1
gene 1 21 57 -2.41646 0 321 -2.41646 1
gene 3 22 57 -0.620777 0 322 -0.620777 1
gene 1 23 57 -0.297937 0 323 -0.297937 1
gene 1 24 57 1.73597 0 324 1.73597 1
gene 2 25 57 1.51549 0 325 1.51549 1
gene 1 26 57 -1.17368 0 326 -1.17368 1
gene 1 27 57 1.32655 0 327 1.32655 1
gene 3 28 57 -1.30573 0 328 -1.30573 1
gene 3 29 57 -0.935331 0 329 -0.935331 1
gene 2 30 57 -3.24497 0 330 -3.24497 1
gene 1 31 57 -1.60932 0 331 -1.60932 1
gene 2 32 57 0.260659 0 332 0.260659 1
gene 1 33 57 -2.67162 0 333 -2.67162 1
gene 1 34 57 2.43236 0 334 2.43236 1
gene 3 35 57 -0.995514 0 335 -0.995514 1
gene 2 36 57 -1.65796 0 336 -1.65796 1
gene 3 37 57 -1.25973 0 337 -1.25973 1
gene 3 38 57 -2.24841 0 338 -2.24841 1
gene 2 39 57 1.7701 0 339 1.7701 1
gene 1 40 57 1.32037 0 340 1.32037 1
gene 3 41 57 0.477721 0 341 0.477721 1
gene 1 42 57 -3.94099 0 342 -3.94099 1
gene 3 43 57 -0.205725 0 343 -0.205725 1
gene 2 44 57 -2.67437 0 344 -2.67437 1
gene 1 45 57 0.204428 0 345 0.204428 1
gene 2 46 57 -2.5041 0 346 -2.5041 1
gene 3 47 57 -0.505051 0 347 -0.505051 1
gene 1 48 57 -1.52954 0 348 -1.52954 1
gene 3 49 57 1.64948 0 349 1.64948 1
gene 2 50 57 -1.05358 0 350 -1.05358 1
gene 2 1 58 0.963775 0 351 0.963775 1
gene 1 2 58 -1.0461 0 352 -1.0461 1
gene 1 3 58 0.112064 0 353 0.112064 1
gene 1 4 58 1.04167 0 354 1.04167 1
gene 3 5 58 -1.58357 0 355 -1.58357 1
gene 3 6 58 -0.531175 0 356 -0.531175 1
gene 1 7 58 -2.77624 0 357 -2.77624 1
gene 2 8 58 1.1614 0 358 1.1614 1
gene 1 9 58 1.82044 0 359 1.82044 1
gene 3 10 58 -1.71976 0 360 -1.71976 1
gene 3 11 58 -2.21667 0 361 -2.21667 1
gene 1 12 58 -0.852992 0 362 -0.852992 1
gene 2 13 58 -2.2586 0 363 -2.2586 1
gene 1 14 58 -1.3554 0 364 -1.3554 1
gene 1 15 58 -3.45601 0 365 -3.45601 1
gene 2 16 58 -0.766045 0 366 -0.766045 1
gene 1 17 58 -0.877209 0 367 -0.877209 1
gene 2 18 58 -1.23617 0 368 -1.23617 1
gene 2 19 58 0.942 0 369 0.942 1
gene 3 20 58 -0.144215 0 370 -0.144215 1
gene 3 21 58 -0.195166 0 371 -0.195166 1
gene 3 22 58 -0.3399 0 372 -0.3399 1
gene 2 23 58 2.92985 0 373 2.92985 1
gene 2 24 58 0.80958 0 374 0.80958 1
gene 1 25 58 2.3526 0 375 2.3526 1
gene 2 26 58 -2.54834 0 376 -2.54834 1
gene 3 27 58 0.158864 0 377 0.158864 1
gene 2 28 58 0.702429 0 378 0.702429 1
gene 1 29 58 -2.40686 0 379 -2.40686 1
gene 2 30 58 -0.278054 0 380 -0.278054 1
gene 1 31 58 4.30502 0 381 4.30502 1
gene 1 32 58 -1.39775 0 382 -1.39775 1
gene 1 33 58 1.02286 0 383 1.02286 1
gene 2 34 58 -2.9865 0 384 -2.9865 1
gene 3 35 58 0.345225 0 385 0.345225 1
gene 1 36 58 -2.83973 0 386 -2.83973 1
gene 2 37 58 -1.35853 0 387 -1.35853 1
gene 1 38 58 -1.75788 0 388 -1.75788 1
gene 3 39 58 -0.251488 0 389 -0.251488 1
gene 1 40 58 1.70147 0 390 1.70147 1
gene 1 41 58 2.72816 0 391 2.72816 1
gene 2 42 58 -1.78263 0 392 -1.78263 1
gene 3 43 58 0.394467 0 393 0.394467 1
gene 2 44 58 2.08078 0 394 2.08078 1
gene 3 45 58 -1.73933 0 395 -1.73933 1
gene 2 46 58 2.2705 0 396 2.2705 1
gene 2 47 58 -0.140751 0 397 -0.140751 1
gene 2 48 58 0.771447 0 398 0.771447 1
gene 3 49 58 2.31097 0 399 2.31097 1
gene 1 50 58 -1.08927 0 400 -1.08927 1
gene 3 1 59 -2.18999 0 401 -2.18999 1
gene 3 2 59 2.99629 0 402 2.99629 1
gene 1 3 59 0.671041 0 403 0.671041 1
gene 3 4 59 -1.66356 0 404 -1.66356 1
gene 3 5 59 2.19955 0 405 2.19955 1
gene 1 6 59 0.569704 0 406 0.569704 1
gene 3 7 59 -2.48497 0 407 -2.48497 1
gene 3 8 59 0.884701 0 408 0.884701 1
gene 2 9 59 -0.910245 0 409 -0.910245 1
gene 3 10 59 -1.5027 0 410 -1.5027 1
gene 2 11 59 -2.18317 0 411 -2.18317 1
gene 1 12 59 -0.30076 0 412 -0.30076 1
gene 1 13 59 2.89482 0 413 2.89482 1
gene 2 14 59 -0.774422 0 414 -0.774422 1
gene 2 15 59 1.42575 0 415 1.42575 1
gene 1 16 59 -1.37306 0 416 -1.37306 1
gene 3 17 59 -1.12961 0 417 -1.12961 1
gene 3 18 59 1.54332 0 418 1.54332 1
gene 2 19 59 -0.435942 0 419 -0.435942 1
gene 1 20 59 -1.65473 0 420 -1.65473 1
gene 2 21 59 -2.08409 0 421 -2.08409 1
gene 3 22 59 -0.0852992 0 422 -0.0852992 1
gene 2 23 59 -1.38928 0 423 -1.38928 1
gene 3 24 59 -0.427122 0 424 -0.427122 1
gene 3 25 59 0.945616 0 425 0.945616 1
gene 1 26 59 1.23029 0 426 1.23029 1
gene 2 27 59 -3.42058 0 427 -3.42058 1
gene 2 28 59 -0.761101 0 428 -0.761101 1
gene 3 29 59 -4.34361 0 429 -4.34361 1
gene 2 30 59 -2.29963 0 430 -2.29963 1
gene 1 31 59 0.01648 0 431 0.01648 1
gene 2 32 59 0.60007 0 432 0.60007 1
gene 2 33 59 -1.26331 0 433 -1.26331 1
gene 3 34 59 0.958098 0 434 0.958098 1
gene 2 35 59 0.224448 0 435 0.224448 1
gene 3 36 59 -3.03952 0 436 -3.03952 1
gene 3 37 59 2.22381 0 437 2.22381 1
gene 1 38 59 -2.0822 0 438 -2.0822 1
gene 3 39 59 -0.404538 0 439 -0.404538 1
gene 2 40 59 -0.469054 0 440 -0.469054 1
gene 2 41 59 1.91533 0 441 1.91533 1
gene 3 42 59 -1.22744 0 442 -1.22744 1
gene 1 43 59 -1.48625 0 443 -1.48625 1
gene 2 44 59 1.7826 0 444 1.7826 1
gene 3 45 59 1.15641 0 445 1.15641 1
gene 2 46 59 3.19663 0 446 3.19663 1
gene 2 47 59 -2.03894 0 447 -2.03894 1
gene 1 48 59 -1.18638 0 448 -1.18638 1
gene 2 49 59 -1.4967 0 449 -1.4967 1
gene 2 50 59 2.54727 0 450 2.54727 1
genomeend 144

/* Organism #154 Fitness: 1 Error: 0 */
genomestart 154
trait 1 0.1 0 0 0 0 0 0 0 
trait 2 0.2 0 0 0 0 0 0 0 
trait 3 0.3 0 0 0 0 0 0 0 
node 1 1 1 1
node 2 1 1 1
node 3 1 1 1
node 4 3 1 1
node 5 1 1 1
node 6 3 1 1
node 7 3 1 1
node 8 3 1 1
node 9 1 1 1
node 10 3 1 1
node 11 1 1 1
node 12 3 1 1
node 13 3 1 1
node 14 2 1 1
node 15 2 1 1
node 16 2 1 1
node 17 2 1 1
node 18 2 1 1
node 19 3 1 1
node 20 2 1 1
node 21 1 1 1
node 22 2 1 1
node 23 2 1 1
node 24 1 1 1
node 25 2 1 1
node 26 1 1 1
node 27 1 1 1
node 28 3 1 1
node 29 1 1 1
node 30 1 1 1
node 31 1 1 1
node 32 2 1 1
node 33 2 1 1
node 34 2 1 1
node 35 2 1 1
node 36 3 1 1
node 37 1 1 1
node 38 2 1 1
node 39 3 1 1
node 40 2 1 1
node 41 2 1 1
node 42 1 1 1
node 43 1 1 1
node 44 1 1 1
node 45 2 1 1
node 46 1 1 1
node 47 1 1 1
node 48 1 1 1
node 49 3 1 1
node 50 3 1 3
node 51 2 0 2
node 52 2 0 2
node 53 3 0 2
node 54 3 0 2
node 55 1 0 2
node 56 3 0 2
node 57 3 0 2
node 58 2 0 2
node 59 3 0 2
node 60 1 0 2
gene 1 1 51 -1.22707 0 1 -1.22707 1
gene 3 2 51 0.318819 0 2 0.318819 1
gene 1 3 51 0.0558412 0 3 0.0558412 1
gene 3 4 51 0.42877 0 4 0.42877 1
gene 2 5 51 0.225982 0 5 0.225982 1
gene 2 6 51 1.07407 0 6 1.07407 1
gene 1 7 51 0.401967 0 7 0.401967 1
gene 2 8 51 0.0181661 0 8 0.0181661 1
gene 3 9 51 -0.675169 0 9 -0.675169 1
gene 1 10 51 1.03511 0 10 1.03511 1
gene 3 11 51 -0.780641 0 11 -0.780641 1
gene 3 12 51 0.0174261 0 12 0.0174261 1
gene 1 13 51 -0.0391934 0 13 -0.0391934 1
gene 2 14 51 0.894696 0 14 0.894696 1
gene 2 15 51 -1.09534 0 15 -1.09534 1
gene 3 16 51 0.249123 0 16 0.249123 1
gene 2 17 51 0.0612964 0 17 0.0612964 1
gene 3 18 51 -1.10108 0 18 -1.10108 1
gene 2 19 51 -0.0165868 0 19 -0.0165868 1
gene 1 20 51 1.0743 0 20 1.0743 1
gene 1 21 51 -0.522362 0 21 -0.522362 1
gene 1 22 51 -0.941694 0 22 -0.941694 1
gene 3 23 51 -1.81639 0 23 -1.81639 1
gene 2 24 51 -1.76222 0 24 -1.76222 1
gene 1 25 51 0.016335 0 25 0.016335 1
gene 2 26 51 1.16428 0 26 1.16428 1
gene 1 27 51 -0.257103 0 27 -0.257103 1
gene 2 28 51 -0.70658 0 28 -0.70658 1
gene 1 29 51 0.311701 0 29 0.311701 1
gene 3 30 51 0.802667 0 30 0.802667 1
gene 2 31 51 0.554659 0 31 0.554659 1
gene 1 32 51 1.37587 0 32 1.37587 1
gene 3 33 51 0.0015717 0 33 0.0015717 1
gene 3 34 51 -0.633572 0 34 -0.633572 1
gene 3 35 51 -0.0803858 0 35 -0.0803858 1
gene 3 36 51 0.737053 0 36 0.737053 1
gene 1 37 51 -0.62392 0 37 -0.62392 1
gene 2 38 51 0.728401 0 38 0.728401 1
gene 1 39 51 -0.743599 0 39 -0.743599 1
gene 2 40 51 0.558374 0 40 0.558374 1
gene 3 41 51 -0.535951 0 41 -0.535951 1
gene 2 42 51 -0.628727 0 42 -0.628727 1
gene 2 43 51 -0.208289 0 43 -0.208289 1
gene 1 44 51 0.0761589 0 44 0.0761589 1
gene 3 45 51 0.286706 0 45 0.286706 1
gene 3 46 51 -0.340365 0 46 -0.340365 1
gene 1 47 51 1.11482 0 47 1.11482 1
gene 3 48 51 -1.2613 0 48 -1.2613 1
gene 1 49 51 0.363643 0 49 0.363643 1
gene 3 50 51 1.10714 0 50 1.10714 1
gene 2 1 52 -0.62537 0 51 -0.62537 1
gene 3 2 52 -0.116619 0 52 -0.116619 1
gene 3 3 52 0.798631 0 53 0.798631 1
gene 2 4 52 0.281014 0 54 0.281014 1
gene 3 5 52 -0.432379 0 55 -0.432379 1
gene 2 6 52 0.0376446 0 56 0.0376446 1
gene 3 7 52 0.488083 0 57 0.488083 1
gene 2 8 52 -0.290063 0 58 -0.290063 1
gene 3 9 52 -1.48074 0 59 -1.48074 1
gene 1 10 52 0.843272 0 60 0.843272 1
gene 1 11 52 -1.63146 0 61 -1.63146 1
gene 3 12 52 -0.10052 0 62 -0.10052 1
gene 1 13 52 -0.23777 0 63 -0.23777 1
gene 1 14 52 0.138417 0 64 0.138417 1
gene 2 15 52 0.459777 0 65 0.459777 1
gene 2 16 52 -0.989486 0 66 -0.989486 1
gene 3 17 52 -1.36181 0 67 -1.36181 1
gene 1 18 52 1.11241 0 68 1.11241 1
gene 1 19 52 1.06188 0 69 1.06188 1
gene 3 20 52 -0.601306 0 70 -0.601306 1
gene 1 21 52 -1.29057 0 71 -1.29057 1
gene 3 22 52 1.29242 0 72 1.29242 1
gene 3 23 52 0.354381 0 73 0.354381 1
gene 3 24 52 0.296365 0 74 0.296365 1
gene 3 25 52 -0.611385 0 75 -0.611385 1
gene 2 26 52 -0.498367 0 76 -0.498367 1
gene 1 27 52 0.207373 0 77 0.207373 1
gene 3 28 52 0.957961 0 78 0.957961 1
gene 3 29 52 -0.467734 0 79 -0.467734 1
gene 1 30 52 -1.02452 0 80 -1.02452 1
gene 3 31 52 0.718001 0 81 0.718001 1
gene 2 32 52 -0.386891 0 82 -0.386891 1
gene 1 33 52 0.380169 0 83 0.380169 1
gene 3 34 52 1.07219 0 84 1.07219 1
gene 3 35 52 -0.705916 0 85 -0.705916 1
gene 3 36 52 0.218688 0 86 0.218688 1
gene 2 37 52 0.565394 0 87 0.565394 1
gene 2 38 52 -0.580439 0 88 -0.580439 1
gene 3 39 52 1.34415 0 89 1.34415 1
gene 3 40 52 1.33063 0 90 1.33063 1
gene 2 41 52 1.8075 0 91 1.8075 1
gene 2 42 52 -1.02537 0 92 -1.02537 1
gene 1 43 52 -0.0286874 0 93 -0.0286874 1
gene 2 44 52 1.02697 0 94 1.02697 1
gene 3 45 52 0.442022 0 95 0.442022 1
gene 1 46 52 -1.89305 0 96 -1.89305 1
gene 2 47 52 0.654798 0 97 0.654798 1
gene 2 48 52 0.615413 0 98 0.615413 1
gene 2 49 52 0.6198 0 99 0.6198 1
gene 3 50 52 -1.04165 0 100 -1.04165 1
gene 2 1 53 1.29828 0 101 1.29828 1
gene 3 2 53 0.509064 0 102 0.509064 1
gene 2 3 53 -0.942198 0 103 -0.942198 1
gene 2 4 53 -0.205901 0 104 -0.205901 1
gene 2 5 53 0.424924 0 105 0.424924 1
gene 3 6 53 -0.504273 0 106 -0.504273 1
gene 1 7 53 0.0167699 0 107 0.0167699 1
gene 1 8 53 -1.30145 0 108 -1.30145 1
gene 1 9 53 0.417814 0 109 0.417814 1
gene 1 10 53 -0.727378 0 110 -0.727378 1
gene 3 11 53 -1.1378 0 111 -1.1378 1
gene 2 12 53 0.321879 0 112 0.321879 1
gene 1 13 53 0.236793 0 113 0.236793 1
gene 2 14 53 1.34759 0 114 1.34759 1
gene 1 15 53 0.0433973 0 115 0.0433973 1
gene 1 16 53 0.450415 0 116 0.450415 1
gene 2 17 53 -0.00872829 0 117 -0.00872829 1
gene 1 18 53 0.945006 0 118 0.945006 1
gene 3 19 53 -0.0618763 0 119 -0.0618763 1
gene 3 20 53 0.163633 0 120 0.163633 1
gene 1 21 53 1.08649 0 121 1.08649 1
gene 1 22 53 0.32049 0 122 0.32049 1
gene 3 23 53 -0.135411 0 123 -0.135411 1
gene 3 24 53 -1.40696 0 124 -1.40696 1
gene 3 25 53 0.520112 0 125 0.520112 1
gene 2 26 53 -0.0643559 0 126 -0.0643559 1
gene 3 27 53 0.038728 0 127 0.038728 1
gene 3 28 53 -0.358951 0 128 -0.358951 1
gene 2 29 53 0.942122 0 129 0.942122 1
gene 3 30 53 0.643323 0 130 0.643323 1
gene 2 31 53 0.896329 0 131 0.896329 1
gene 2 32 53 0.40289 0 132 0.40289 1
gene 1 33 53 0.10123 0 133 0.10123 1
gene 1 34 53 -1.01778 0 134 -1.01778 1
gene 1 35 53 -0.72071 0 135 -0.72071 1
gene 2 36 53 0.828715 0 136 0.828715 1
gene 1 37 53 -0.0539796 0 137 -0.0539796 1
gene 1 38 53 -0.07622 0 138 -0.07622 1
gene 3 39 53 0.042436 0 139 0.042436 1
gene 1 40 53 0.138936 0 140 0.138936 1
gene 2 41 53 0.861965 0 141 0.861965 1
gene 3 42 53 -0.519417 0 142 -0.519417 1
gene 2 43 53 1.17615 0 143 1.17615 1
gene 3 44 53 0.0644856 0 144 0.0644856 1
gene 3 45 53 0.246216 0 145 0.246216 1
gene 1 46 53 -0.231697 0 146 -0.231697 1
gene 2 47 53 -0.631336 0 147 -0.631336 1
gene 2 48 53 1.07805 0 148 1.07805 1
gene 1 49 53 0.267098 0 149 0.267098 1
gene 3 50 53 -0.209342 0 150 -0.209342 1
gene 3 1 54 1.28965 0 151 1.28965 1
gene 3 2 54 1.11859 0 152 1.11859 1
gene 1 3 54 -0.303354 0 153 -0.303354 1
gene 3 4 54 -0.48938 0 154 -0.48938 1
gene 1 5 54 1.00021 0 155 1.00021 1
gene 1 6 54 1.01396 0 156 1.01396 1
gene 1 7 54 -0.154439 0 157 -0.154439 1
gene 3 8 54 0.00516526 0 158 0.00516526 1
gene 1 9 54 -0.290925 0 159 -0.290925 1
gene 2 10 54 1.38008 0 160 1.38008 1
gene 2 11 54 0.100284 0 161 0.100284 1
gene 2 12 54 -0.970908 0 162 -0.970908 1
gene 3 13 54 -1.85979 0 163 -1.85979 1
gene 3 14 54 0.0559099 0 164 0.0559099 1
gene 2 15 54 -0.177114 0 165 -0.177114 1
gene 3 16 54 -0.173063 0 166 -0.173063 1
gene 3 17 54 0.876606 0 167 0.876606 1
gene 2 18 54 0.214248 0 168 0.214248 1
gene 3 19 54 -0.817774 0 169 -0.817774 1
gene 1 20 54 -0.164686 0 170 -0.164686 1
gene 1 21 54 0.628277 0 171 0.628277 1
gene 2 22 54 -1.00108 0 172 -1.00108 1
gene 1 23 54 0.138493 0 173 0.138493 1
gene 3 24 54 -0.767251 0 174 -0.767251 1
gene 2 25 54 -0.267052 0 175 -0.267052 1
gene 1 26 54 1.58166 0 176 1.58166 1
gene 1 27 54 0.754624 0 177 0.754624 1
gene 1 28 54 0.00476089 0 178 0.00476089 1
gene 2 29 54 -0.763245 0 179 -0.763245 1
gene 1 30 54 1.15452 0 180 1.15452 1
gene 3 31 54 0.00206 0 181 0.00206 1
gene 2 32 54 0.51001 0 182 0.51001 1
gene 2 33 54 1.39138 0 183 1.39138 1
gene 2 34 54 1.2914 0 184 1.2914 1
